tree
version=v4
num_class=1
num_tree_per_iteration=1
label_index=0
max_feature_idx=2
objective=regression
feature_names=ret sigma20 atr14
feature_infos=[-0.95119680851063826:-0.00018097909691439096] [6.950655451229106e-05:0.21093845296877023] [0.014169262581369546:13552.153717819285]
tree_sizes=5594 5855 5739 5858 5742 5875 5763 5736 5842 5755 5765 5750 5789 5783 5780 5771 5757 5775 5772 5760 5774 5763 5776 5899 5752 5779 5887 5774 5774 5761 5806 5785 5802 5778 5881 5883 5790 5801 5796 5783 5805 5800 5872 5876 5820 5784 5796 5805 5798 5881 5819 5816 5789 5918 5813 5807 5778 5796 5878 5834 5810 5825 5810 5881 5807 5803 5811 5834 5831 5832 5838 5788 5844 5853 5850 5889 5824 5838 5881 5824 5922 5827 5911 5867 5868 5918 5920 5951 5823 5859 5859 5917 5853 5945 5854 5818 5880 5868 5850 5861 5844 5864 5844 5865 5875 5827 5840 5857 5855 5825 5876 5885 5907 5852 5833 5911 5927 5842 5846 5843 5859 5830 5920 5865 5930 5861 5917 5858 5829 5862 5917 5865 5878 5921 5913 5875 5885 5866 5938 5918 5879 5884 5837 5859 5885 5879 5929 5935 5921 5884 5866 5853 5879 5941 5961 5883 5877 5860 5937 5843 5858 5844 5953 5867 5860 5906 5855 5848 5864 5880 5847 5875 5866 5886 5891 5871 5876 5863 5889 5916 5858 5854 5846 5888 5882 5899 5878 5902 5940 5945 5868 5952 5958 5919 5951 5927 5848 5868 5976 5943 5859 5878 5863 5877 5943 5863 5957 5962 5932 5945 5905 5941 5915 5908 5871 5887 5965 5852 5901 5897 5849 5852 5850 5853 5985 5946 5894 5997 5855 5912 5965 5890 5866 5983 5877 5894 5925 5868 5913 5842 6006 5888 5909 5863 5953 5993 5864 6024 5915 5988 5958 6012 5883 5973 6016 5857 5908 5895 5950 6000 5896 6005 5898 6000 5868 5894 5854 5877 5894 6000 5864 5875 6008 5889 5869 5857 5989 5886 5918 5896 5835 5994 5909 5907 5944 5900 5972 5968 5892 5878 5878 5863 5896 5888 5912 5929 5862 5906 5881 5972 5960 5958 5830 5884 5966 5994 5874 5917 5888 5885 5868 5870 5971 5978 5890 5879 5890 5855 5987 5868 5900 5894 5892 6004 5991 5859 5878 5898 5961 5878 5966 5871 5906 5875 5895 5881 5894 5891 5883 5986 5977 5894 5894 6002 5894 6009 5880 5901 5889 5850 5980 5963 5878 5872 5960 5896 5865 5907 5981 5880 5892 5883 6001 5880 5960 6001 5942 5918 5916 5920 5891 5903 5846 5986 5986 5873 5978 5902 5870 5872 6004 5862 5970 5986 5856 6008 5986 5999 5891 5914 5864 5978 5887 5981 5892 5982 5973 5892 5987 5880 5910 5870 5888 5970 5891 5887 5993 5907 5964 5885 5849 5988 5992 5876 5891 6016 5914 6005 5873 5869 5911 5939 5859 5863 5972 5986 5867 5893 5990 5881 5884 5888 6005 5873 5847 5948 6002 5988 5880 5851 5997 5897 5889 5886 5986 5900 5879 5989 5892 6021 5981 5865 5979 5852 5883 5884 6011 5983 6022 5845 6006 6015 5988 5901 5881 6003 6003 5900 5916 5922 5897 5892 5891 5899 5892 5860 5881 5887 5902 5912 5881 5900 5922 5998 5910 5904 6022 6000 5997 5863 5869 5991 5987 5911 5903 5984 5966 5907 5926 5894

Tree=0
num_leaves=63
num_cat=0
split_feature=1 0 1 1 0 1 0 1 0 1 1 0 1 1 0 0 1 0 0 0 0 0 1 1 0 0 0 1 1 1 0 0 0 1 0 1 1 0 1 0 0 0 0 1 0 1 1 1 1 1 1 0 0 1 0 1 0 1 0 0 0 0
split_gain=2.58135 0.330476 0.166416 0.104243 0.14224 0.214827 0.326207 0.175337 0.102999 0.0701356 0.0612132 0.199944 0.0849432 0.0594061 0.0822571 0.0807149 0.0691058 0.0649449 0.0703917 0.0698845 0.0772394 0.0899422 0.0681407 0.0559636 0.0517707 0.0488135 0.0468823 0.043143 0.0406533 0.097619 0.132201 0.181633 0.041792 0.0355364 0.0445372 0.0328106 0.0502873 0.0804859 0.0643258 0.0405489 0.0306419 0.0291873 0.0520323 0.0507523 0.0425793 0.0316053 0.0277605 0.0986477 0.0453375 0.0422124 0.0370127 0.0260686 0.0249343 0.0232525 0.0533597 0.0744947 0.052117 0.0494401 0.0520619 0.0512978 0.0378326 0.0201752
threshold=0.031474969219916292 -0.12597849755035381 0.018936872196337221 0.037470329107242718 -0.15097249987665098 0.059828576326291877 -0.29745986038394406 0.047165850636685221 -0.13541752778981389 0.046178615644785863 0.017793549079128574 -0.046960454761395147 0.017065787159413034 0.022336982856154122 -0.060421978270083936 -0.074602715650670823 0.019898708564725084 -0.062198843434961064 -0.065326301176344956 -0.068310253019993258 -0.070861143547249414 -0.072882346484269875 0.025202427059914476 0.0045277003119660068 -0.19293292308993634 -0.12076248844458946 -0.049860908090655236 0.053533938923714462 0.028401382865448549 0.029238147051047051 -0.080587127270455791 -0.09409155785482913 -0.084981561591323682 0.017612160575147657 -0.055945000945000982 0.036510692137591658 0.033609201399872009 -0.088866001170406758 0.034729501264756157 -0.1124090705799498 -0.20910192026011235 -0.054333439774298269 -0.043821560666650543 0.015500476023601278 -0.056463322929906572 0.016032616806488164 0.026730995083378329 0.027314565558168424 0.026283662715071151 0.025455407841983264 0.025019419360120154 -0.042749286891474385 -0.079579363517982435 0.021348772264613198 -0.057994020308770537 0.022116651541057439 -0.061444708701065769 0.021001935135809838 -0.060421978270083936 -0.068310253019993258 -0.061144533831566754 -0.046960454761395147
decision_type=2 2 2 2 2 2 2 2 2 2 2 2 2 2 2 2 2 2 2 2 2 2 2 2 2 2 2 2 2 2 2 2 2 2 2 2 2 2 2 2 2 2 2 2 2 2 2 2 2 2 2 2 2 2 2 2 2 2 2 2 2 2
left_child=2 3 10 -2 5 9 -7 8 -6 -5 12 -12 23 15 17 -4 -17 18 19 20 21 28 -22 -1 -11 -3 33 -26 46 -30 31 -31 -33 34 -14 36 37 -27 -38 -37 -8 43 -43 -25 -45 -44 48 -48 49 50 -15 -47 -49 57 55 56 -55 59 -59 -18 -61 -28
right_child=1 25 13 4 7 6 40 -9 -10 24 11 -13 26 14 -16 16 53 -19 -20 -21 22 -23 -24 41 27 35 61 -29 29 30 -32 32 -34 -35 -36 39 38 -39 -40 -41 -42 42 45 44 -46 51 47 52 -50 -51 -52 -53 -54 54 -56 -57 -58 58 -60 60 -62 -63
leaf_value=0.025548434899194426 0.027455380711207619 0.026487672265521303 0.025635169003942783 0.026422197770925526 0.029963158882744687 0.027682661426569024 0.030489009561354842 0.028073099614491837 0.032563518095356771 0.02708834270254902 0.025852698662267512 0.022957875268935012 0.027497117191255811 0.026109563716250259 0.024792188810860948 0.026259901719037405 0.028172726125425179 0.027859241962019141 0.025139839200410578 0.027455209135246249 0.024268019743612333 0.02800723004637358 0.026309713595548831 0.024551952916005322 0.028025736955449417 0.027154750917572454 0.027980644785346561 0.029879071133379613 0.027726765079413043 0.025126009747480811 0.024069436513140502 0.028650379844976509 0.026854842941212254 0.025307108254223849 0.025888166492245644 0.027429765304718884 0.025772323840466117 0.029164491177480101 0.027705957602033877 0.028732084933312863 0.031963048206810625 0.026387086331680944 0.026036814384507195 0.026450858937287894 0.024854653219062488 0.02450550001808768 0.023977251578639981 0.02578046807642095 0.027451015121471856 0.0251739062246377 0.027523311826103153 0.025847000090602805 0.027025898701031802 0.027299406085715197 0.025624064805620139 0.028594090685359515 0.025473493085760409 0.027125053154068057 0.029166378119536124 0.025779853531852207 0.027014999711373111 0.026913832368927366
leaf_weight=209 35 35 59 26 29 38 22 23 26 23 204 24 30 100 33 141 28 24 46 48 31 29 28 31 26 47 27 20 52 38 22 28 20 24 32 39 30 29 32 48 30 414 1840 53 21 22 24 39 25 36 20 32 23 34 30 22 24 23 22 28 110 39
leaf_count=209 35 35 59 26 29 38 22 23 26 23 204 24 30 100 33 141 28 24 46 48 31 29 28 31 26 47 27 20 52 38 22 28 20 24 32 39 30 29 32 48 30 414 1840 53 21 22 24 39 25 36 20 32 23 34 30 22 24 23 22 28 110 39
internal_value=0.0263947 0.0283115 0.0261394 0.0289935 0.0291982 0.0287451 0.0297955 0.0302726 0.0311924 0.0277501 0.0260205 0.025548 0.0260593 0.0264401 0.0262524 0.0266801 0.0268135 0.0263285 0.0262682 0.0263604 0.0262584 0.0263905 0.025237 0.0260194 0.0282505 0.0275299 0.0267488 0.0288315 0.0262807 0.0266588 0.0261447 0.0266755 0.0279022 0.0262873 0.0266667 0.027692 0.0274044 0.0279216 0.0267703 0.0281483 0.0313394 0.0260602 0.0260824 0.025571 0.0259979 0.0260158 0.0260541 0.0256103 0.026265 0.0260749 0.0263452 0.0253005 0.0262425 0.0270567 0.0267031 0.0271077 0.0265439 0.027241 0.028123 0.0270019 0.0267644 0.0273503
internal_weight=4747 558 4189 298 263 185 90 78 55 95 3002 228 2774 1187 666 521 462 633 609 563 515 456 59 2622 69 260 152 46 427 160 108 86 48 86 62 225 138 76 62 87 52 2413 2308 105 74 1894 267 86 181 156 120 54 62 321 110 80 58 211 45 166 138 66
internal_count=4747 558 4189 298 263 185 90 78 55 95 3002 228 2774 1187 666 521 462 633 609 563 515 456 59 2622 69 260 152 46 427 160 108 86 48 86 62 225 138 76 62 87 52 2413 2308 105 74 1894 267 86 181 156 120 54 62 321 110 80 58 211 45 166 138 66
is_linear=0
shrinkage=1


Tree=1
num_leaves=63
num_cat=0
split_feature=1 0 1 1 0 1 0 1 0 1 0 1 0 1 1 0 0 1 0 0 0 0 0 1 1 0 0 0 1 1 0 0 0 1 0 1 1 0 1 0 0 0 1 0 1 0 1 1 1 1 1 1 0 1 0 1 0 1 0 0 0 1
split_gain=2.42879 0.310945 0.156581 0.0980823 0.134731 0.270714 0.257745 0.222001 0.258269 0.214505 0.0969117 0.0575955 0.188127 0.0799231 0.0558952 0.0773958 0.0759447 0.0650217 0.0611066 0.0662315 0.0657544 0.0726745 0.0846266 0.0641136 0.0526561 0.0504454 0.0459286 0.0441116 0.0382507 0.0918497 0.124388 0.170898 0.0393221 0.0334362 0.041905 0.0308715 0.0473154 0.0759444 0.0605242 0.0381525 0.0274624 0.0489572 0.0477528 0.0400629 0.0297374 0.0271846 0.0261199 0.0928176 0.0426581 0.0397176 0.0348252 0.0249127 0.0234607 0.0218783 0.0502061 0.0700921 0.0490369 0.0465182 0.048985 0.0482661 0.0355967 0.0191705
threshold=0.031474969219916292 -0.12597849755035381 0.018936872196337221 0.037470329107242718 -0.19293292308993634 0.053533938923714462 -0.15097249987665098 0.065268837301905094 -0.29745986038394406 0.047165850636685221 -0.13541752778981389 0.017793549079128574 -0.046960454761395147 0.017065787159413034 0.022336982856154122 -0.060421978270083936 -0.074602715650670823 0.019898708564725084 -0.062198843434961064 -0.065326301176344956 -0.068310253019993258 -0.070861143547249414 -0.072882346484269875 0.025202427059914476 0.0045277003119660068 -0.16437740686122151 -0.12076248844458946 -0.049860908090655236 0.028401382865448549 0.029238147051047051 -0.080587127270455791 -0.09409155785482913 -0.084981561591323682 0.017612160575147657 -0.055945000945000982 0.036510692137591658 0.033609201399872009 -0.087969171240082508 0.034729501264756157 -0.1124090705799498 -0.054333439774298269 -0.043821560666650543 0.015500476023601278 -0.056463322929906572 0.016032616806488164 -0.10001642575558477 0.026730995083378329 0.027314565558168424 0.026283662715071151 0.025455407841983264 0.025019419360120154 0.016487386723460309 -0.079579363517982435 0.021348772264613198 -0.057994020308770537 0.022116651541057439 -0.061444708701065769 0.021001935135809838 -0.060421978270083936 -0.068310253019993258 -0.061144533831566754 0.019193727107369062
decision_type=2 2 2 2 2 2 2 2 2 2 2 2 2 2 2 2 2 2 2 2 2 2 2 2 2 2 2 2 2 2 2 2 2 2 2 2 2 2 2 2 2 2 2 2 2 2 2 2 2 2 2 2 2 2 2 2 2 2 2 2 2 2
left_child=2 3 11 -2 7 6 25 -5 -9 10 -8 13 -13 24 16 18 -4 61 19 20 21 22 28 -23 -1 -6 -3 33 46 -30 31 -31 -33 34 -15 36 37 45 -38 -37 42 -42 -26 -44 -43 -28 48 -48 49 50 -16 -46 -49 57 55 56 -55 59 -59 -19 -61 -18
right_child=1 26 14 4 5 -7 9 8 -10 -11 -12 12 -14 27 15 -17 17 53 -20 -21 -22 23 -24 -25 40 -27 35 -29 29 30 -32 32 -34 -35 -36 39 38 -39 -40 -41 41 44 43 -45 51 -47 47 52 -50 -51 -52 -53 -54 54 -56 -57 -58 58 -60 60 -62 -63
leaf_value=-0.00082090893154434694 0.0010288285587282319 9.0151264199188769e-05 -0.00073677684817763075 -0.00026739705684444593 0.0017243665106723019 0.005384177732281387 0.0034613732608227894 0.0012492907664885646 0.0051296223909594119 0.0011487205246124754 0.0059837218381177913 -0.00052577303355278945 -0.0033337517187464979 0.0010693129235878585 -0.00027661391560686749 -0.0015544676425104792 0.0004556814655262388 0.0017246535613334604 0.0014205740051693283 -0.0012172467318748163 0.0010286620938859414 -0.0020629116267927229 0.0015641223752453665 -8.2468512285101611e-05 -0.0017874964201943049 -0.0001806845503266562 0.0013890778712396111 0.00092685717687180096 0.0012920713503039084 -0.0012306612819482229 -0.0022555373665686189 0.0021879777416376912 0.00044630686473101378 -0.0010549957974581047 -0.00049136922927573324 0.0010039816467234722 -0.00060373670607805248 0.0027586375859876473 0.0012718880965257994 0.0022672315420641099 -7.4170315412524406e-06 -0.00034718082376821254 5.4442404224625172e-05 -0.0014938771613274833 -0.0016823717043735087 -3.8802732846566613e-05 -0.0023449567156785633 -0.00059583671749211279 0.0010245939720422029 -0.001184201673604548 0.0010947217815555632 -0.00039274767865068636 0.00061223098998079478 0.00087753317264073027 -0.00074754787617712271 0.002133377229964191 -0.00089360244921408592 0.00070841076176451597 0.0026884959374563716 -0.00059643282814899332 0.00060165892941983073 -0.00033943315611955206
leaf_weight=209 35 35 59 31 29 40 29 38 26 22 26 204 24 30 100 33 37 28 24 46 48 31 29 28 31 22 28 66 52 38 22 28 20 24 32 39 30 27 32 48 414 1840 53 21 28 21 24 39 25 36 20 26 23 34 30 22 24 23 22 28 110 104
leaf_count=209 35 35 59 31 29 40 29 38 26 22 26 204 24 30 100 33 37 28 24 46 48 31 29 28 31 22 28 66 52 38 22 28 20 24 32 39 30 27 32 48 414 1840 53 21 28 21 24 39 25 36 20 26 23 34 30 22 24 23 22 28 110 104
internal_value=2.52428e-12 0.00185928 -0.000247667 0.00252077 0.00271932 0.00322992 0.00255672 0.00181636 0.00282568 0.00365232 0.00465376 -0.000363001 -0.00082135 -0.000325329 4.40189e-05 -0.000138062 0.000276775 0.000406212 -6.42212e-05 -0.000122735 -3.3308e-05 -0.000132288 -4.0983e-06 -0.00112304 -0.0003641 0.00090258 0.00110111 0.000343475 -0.000110605 0.000256189 -0.000242569 0.000272377 0.00146228 -0.000104236 0.0002638 0.00125837 0.000979354 0.00148109 0.000364328 0.00170095 -0.000324534 -0.000302947 -0.000799032 -0.000384946 -0.000367545 0.000777129 -0.000330407 -0.000760875 -0.000125875 -0.000310245 -4.8058e-05 -0.00106144 -0.000147683 0.000642089 0.000299068 0.00069155 0.000144649 0.000820915 0.00167645 0.000588992 0.000358568 -0.000130786
internal_weight=4747 558 4189 298 263 168 128 95 64 77 55 3002 228 2774 1187 666 521 462 633 609 563 515 456 59 2622 51 260 152 427 160 108 86 48 86 62 225 138 76 62 87 2413 2308 105 74 1894 49 267 86 181 156 120 54 62 321 110 80 58 211 45 166 138 141
internal_count=4747 558 4189 298 263 168 128 95 64 77 55 3002 228 2774 1187 666 521 462 633 609 563 515 456 59 2622 51 260 152 427 160 108 86 48 86 62 225 138 76 62 87 2413 2308 105 74 1894 49 267 86 181 156 120 54 62 321 110 80 58 211 45 166 138 141
is_linear=0
shrinkage=0.03


Tree=2
num_leaves=63
num_cat=0
split_feature=1 1 2 2 2 2 2 2 1 1 1 2 2 2 2 2 1 2 2 2 1 2 2 2 2 2 2 1 1 1 1 2 1 1 2 2 1 1 2 1 1 2 2 1 2 2 2 1 2 1 1 1 2 2 2 2 2 2 2 1 1 1
split_gain=2.28525 0.273048 0.399372 0.176652 0.173782 0.377512 0.426691 0.526571 0.163421 0.117861 0.0968554 0.0884289 0.119988 0.109408 0.118675 0.1135 0.0806931 0.143589 0.142732 0.100482 0.0998397 0.186507 0.0835795 0.0818657 0.071121 0.113087 0.0867954 0.0636553 0.0632114 0.0618411 0.0568323 0.0554051 0.0493362 0.0462492 0.0448856 0.0926022 0.0600534 0.0633355 0.0704589 0.0497693 0.123976 0.0452737 0.0960994 0.0444544 0.0404347 0.0926739 0.14347 0.0613671 0.105333 0.102454 0.0497256 0.0381264 0.0362336 0.0356454 0.0341973 0.0434547 0.0758958 0.0338363 0.0320807 0.0268562 0.0576891 0.024155
threshold=0.031474969219916292 0.043441329471149544 1.6383635073873912 0.8488268681776806 3.202900997057768 11.182463170438753 7.8940839215657288 5.6146279786697564 0.019661758497150749 0.055934830295606107 0.091666967952461431 2.8982733539482575 1.2532664248499263 4.0890721601308355 5.1348768466233397 6.6374750997419065 0.021348772264613198 2.1522413210630043 3.6244738384272366 1.3042862644373117 0.026988125908113041 1.5280812575029097 3.3579873315672546 1.1748554363846051 7.6034668838599062 13.823036288364783 10.013449948730942 0.035825865413830572 0.036510692137591658 0.022336982856154122 0.022826397265842794 4.0138712066165283 0.026988125908113041 0.020206761525999432 8.5094848133390091 18.637917963746045 0.017862230630558276 0.018936872196337221 3.5933029889137393 0.016311653606500113 0.013002723325021148 1.2211642790407671 1.4009205362165302 0.009097738595728792 6.7892217890072288 8.2393429290491778 9.1808389576229334 0.027808636449044178 15.151237803198841 0.026527861115382228 0.025202427059914476 0.02339019120064079 2.6114097259525795 1.9041574513544208 5.9114308429701046 5.0157034281822979 4.6129844789279266 5.4481399146039271 7.6034668838599062 0.020623181297847414 0.015447756326071569 0.026006099892731539
decision_type=2 2 2 2 2 2 2 2 2 2 2 2 2 2 2 2 2 2 2 2 2 2 2 2 2 2 2 2 2 2 2 2 2 2 2 2 2 2 2 2 2 2 2 2 2 2 2 2 2 2 2 2 2 2 2 2 2 2 2 2 2 2
left_child=3 11 -3 29 -4 6 7 -6 34 -7 -11 12 -2 -13 -15 -16 19 20 22 -10 23 -22 32 -18 -17 26 -26 -27 -14 59 -25 -20 52 -21 36 -36 41 -38 53 40 -37 43 -43 -5 54 58 -47 49 -49 50 51 -48 -19 -39 55 56 -33 -57 -46 60 -1 -56
right_child=1 2 4 8 5 9 -8 -9 16 10 -12 13 28 14 15 24 17 18 31 33 21 -23 -24 30 25 27 -28 -29 -30 -31 -32 44 -34 -35 35 39 37 38 -40 -41 -42 42 -44 -45 45 46 47 48 -50 -51 -52 -53 -54 -55 61 57 -58 -59 -60 -61 -62 -63
leaf_value=-0.00056523102774898759 0.0019408847776527006 0.0059460709623194163 0.00016764527844155536 -0.00059754804695968499 0.0052193018645536327 0.0023506401687000806 0.0071386793775197396 -0.0004563513351604342 0.0026142895078062013 -0.0012172705371631309 0.0014779385365545749 0.0030419556119454069 0.00034737145218777617 -0.00029331657104194161 0.0032766047678887845 -0.00036859621227319751 0.0014861565479077398 0.0010693082708696073 -0.0013325123891367444 -0.00012088160316673028 -0.00033372786885593086 -0.0038754218469029696 0.0027048466272611657 0.00043540243478491899 0.0015469640263079387 0.001790577825824065 0.0039264511520212342 -0.00034861330303453627 -0.0017362856324762105 -0.0018401286023010204 -0.0011594262601593967 -0.00026893690653980292 0.0015812404372831579 0.00076068186248183891 0.00042951400446113169 -0.00016345032173293558 -0.001141662770961165 -0.00027278331645692769 -0.0011459918000955918 0.00017231890998248544 -0.002776372804790019 -0.001064453110560838 -0.00027121099623196148 0.00022168666616491608 -0.00064776139076927605 0.0021019481021877645 5.1582717342535031e-05 -0.00067560535116607085 0.0022279738486659798 -0.0023579852777006831 0.001120226518462666 -0.0012394122774047511 -0.00022203569700650404 0.001256959577701215 0.00048116566452126086 -0.0012534093996062158 0.0020677739858034659 0.00032623822922291963 -0.0021480749240246318 0.00037067063719682067 -0.0015449095950614601 0.0018318293912505561
leaf_weight=478 31 28 34 77 31 39 26 28 21 24 24 37 38 36 30 21 20 33 28 83 32 23 23 30 37 21 22 31 20 41 61 29 41 151 204 44 156 26 38 42 26 151 1532 264 29 28 50 23 22 23 22 35 48 29 26 26 22 23 23 23 61 22
leaf_count=478 31 28 34 77 31 39 26 28 21 24 24 37 38 36 30 21 20 33 28 83 32 23 23 30 37 21 22 31 20 41 61 29 41 151 204 44 156 26 38 42 26 151 1532 264 29 28 50 23 22 23 22 35 48 29 26 26 22 23 23 23 61 22
internal_value=1.10066e-11 0.0018035 0.00258439 -0.000240237 0.00212746 0.00251487 0.00393678 0.00252577 -0.00016035 0.00112564 0.000130334 0.00123953 0.000434178 0.00154453 0.00126471 0.00161094 0.000166004 7.7846e-06 0.000231823 0.000626392 -0.000769601 -0.0018148 0.00104601 -0.00025171 0.00123238 0.00153527 0.00243423 0.000515291 -0.000371131 -0.000715323 -0.000633659 -4.20924e-05 0.000733281 0.000447991 -0.000286026 4.89897e-05 -0.000332601 -0.000772239 -0.000152562 -0.000644108 -0.00113396 -0.000278515 -0.000342381 3.66982e-05 4.75646e-05 -0.000181368 0.000108089 -0.000210928 0.000743922 -0.000541454 -0.000150984 -0.000480003 0.000304067 0.000533808 0.000442008 0.000126067 0.000739056 -0.000511942 -0.00131136 -0.000633264 -0.000676104 0.00110022
internal_weight=4747 558 234 4189 206 172 85 59 3586 87 48 324 89 235 198 162 997 742 576 255 166 55 145 111 132 111 59 52 58 603 91 431 122 234 2589 316 2273 249 93 112 70 2024 1683 341 403 255 203 175 45 130 107 85 81 55 148 100 51 49 52 562 539 48
internal_count=4747 558 234 4189 206 172 85 59 3586 87 48 324 89 235 198 162 997 742 576 255 166 55 145 111 132 111 59 52 58 603 91 431 122 234 2589 316 2273 249 93 112 70 2024 1683 341 403 255 203 175 45 130 107 85 81 55 148 100 51 49 52 562 539 48
is_linear=0
shrinkage=0.03


Tree=3
num_leaves=63
num_cat=0
split_feature=1 0 1 1 0 1 0 1 0 1 0 1 0 1 1 0 0 1 0 0 0 0 0 1 1 0 0 0 1 1 0 0 0 1 0 1 1 0 1 0 0 0 0 0 0 1 0 0 1 1 1 0 0 0 0 0 0 1 0 0 0 0
split_gain=2.15019 0.282659 0.138257 0.0885919 0.127116 0.257909 0.243141 0.212 0.243658 0.203737 0.0924569 0.0506061 0.176748 0.074624 0.049216 0.0718912 0.0716418 0.0584215 0.0559253 0.0615015 0.0625589 0.0667083 0.0779861 0.0593012 0.0479277 0.046296 0.043787 0.0412772 0.0347302 0.0864 0.116381 0.159761 0.0371154 0.0311896 0.0393095 0.0291565 0.0437348 0.0720159 0.056813 0.0363072 0.0262675 0.0383258 0.0607725 0.0459164 0.0303151 0.02796 0.0260715 0.0528397 0.0350247 0.0547851 0.0328945 0.0893119 0.0259045 0.0250565 0.0460341 0.0457656 0.022812 0.0540523 0.0207538 0.0194596 0.0235859 0.0717772
threshold=0.031474969219916292 -0.12597849755035381 0.018936872196337221 0.037470329107242718 -0.19293292308993634 0.053533938923714462 -0.15097249987665098 0.065268837301905094 -0.29745986038394406 0.047165850636685221 -0.13541752778981389 0.017793549079128574 -0.046960454761395147 0.017065787159413034 0.022336982856154122 -0.060421978270083936 -0.074602715650670823 0.019898708564725084 -0.062198843434961064 -0.065326301176344956 -0.068310253019993258 -0.070861143547249414 -0.072882346484269875 0.025202427059914476 0.0045277003119660068 -0.16437740686122151 -0.12076248844458946 -0.049860908090655236 0.028401382865448549 0.029238147051047051 -0.080587127270455791 -0.09409155785482913 -0.084981561591323682 0.017612160575147657 -0.055945000945000982 0.036510692137591658 0.033609201399872009 -0.087969171240082508 0.034729501264756157 -0.1124090705799498 -0.058267464383094651 -0.056175976750229777 -0.054333439774298269 -0.043821560666650543 -0.061144533831566754 0.014503827193694621 -0.039972529091184643 -0.041001353803218336 0.016032616806488164 0.016487386723460309 0.014963840551792182 -0.038308491184043884 -0.10001642575558477 -0.082173842832399188 -0.074602715650670823 -0.076004399962688193 -0.090069414094785125 0.026527861115382228 -0.077539592245474617 -0.06736737884314746 -0.059160628120838214 -0.056463322929906572
decision_type=2 2 2 2 2 2 2 2 2 2 2 2 2 2 2 2 2 2 2 2 2 2 2 2 2 2 2 2 2 2 2 2 2 2 2 2 2 2 2 2 2 2 2 2 2 2 2 2 2 2 2 2 2 2 2 2 2 2 2 2 2 2
left_child=2 3 11 -2 7 6 25 -5 -9 10 -8 13 -13 24 16 18 -4 -18 19 20 21 22 28 -23 -1 -6 -3 33 53 -30 31 -31 -33 34 -15 36 37 52 -38 -37 44 -42 -43 -44 -26 -45 47 48 -47 -50 51 -48 -28 56 55 58 -16 -58 -55 -19 -61 -62
right_child=1 26 14 4 5 -7 9 8 -10 -11 -12 12 -14 27 15 -17 17 59 -20 -21 -22 23 -24 -25 40 -27 35 -29 29 30 -32 32 -34 -35 -36 39 38 -39 -40 -41 41 42 43 45 -46 46 50 -49 49 -51 -52 -53 -54 54 -56 -57 57 -59 -60 60 61 -63
leaf_value=-0.0007793731285106228 0.00096215700933576691 3.9424762129783627e-05 -0.00072495589447128816 -0.0003445695457799781 0.00158833062886421 0.0051674339063465594 0.003283089012678327 0.0011468815881954997 0.004915856940743442 0.0010318149397657676 0.0057467823819472236 -0.00048454583632787139 -0.0032062766481249128 0.001042696232907474 -0.00023282855877187103 -0.0014949065861715512 -0.00012383309966993537 0.0011224488189274613 0.0013618197292089461 -0.0011693147394765656 0.0010074093178991462 -0.0019781040081814408 0.0015032713095946557 -7.3436807308878215e-05 -0.00024921058987577754 -0.00023668949111280114 0.001303160855771109 0.00090448779961496413 0.0012497811277325335 -0.0011937769712561644 -0.0021857379603898151 0.002114979193969962 0.00042288267519325018 -0.0010111934598535299 -0.00046888130251318213 0.00093028779499805883 -0.00062028630217537278 0.0026353719183761213 0.0011969252047128974 0.0021626103842572776 0.00098506445863417199 -0.0016438520015217364 1.3496915462251373e-06 -0.00030456170137861102 -0.0016708316985103819 -0.0003041897795212987 -0.0029266374402315072 0.00056934960157377639 -0.0023405539965257048 -0.00037366048155280831 -0.00012375986802258662 -0.00042332777496555753 -9.0695050145898554e-05 0.00026015872113410813 -0.00094174148204425961 0.0015176578920165246 -0.00037601846304335972 -0.0022193162608891725 -0.00086565712268929919 0.00015274974846813294 0.0016744826667476444 0.00030555370530409336
leaf_weight=209 35 35 59 31 29 40 29 38 26 22 26 204 24 30 70 33 141 55 24 46 48 31 29 28 27 22 28 66 52 38 22 28 20 24 32 39 30 27 32 48 21 30 414 1664 27 70 23 36 25 26 21 29 21 56 36 22 41 22 20 105 50 111
leaf_count=209 35 35 59 31 29 40 29 38 26 22 26 204 24 30 70 33 141 55 24 46 48 31 29 28 27 22 28 66 52 38 22 28 20 24 32 39 30 27 32 48 21 30 414 1664 27 70 23 36 25 26 21 29 21 56 36 22 41 22 20 105 50 111
internal_value=-1.28523e-12 0.0017494 -0.00023303 0.00238008 0.00256878 0.00306475 0.00240766 0.00169171 0.00267803 0.00347176 0.00444774 -0.000341405 -0.000771044 -0.000306093 4.10575e-05 -0.000129799 0.000259465 0.000385181 -5.86319e-05 -0.00011461 -2.84355e-05 -0.00012498 -2.16533e-06 -0.00107419 -0.000343556 0.000801067 0.00102653 0.000340159 -0.000104408 0.0002451 -0.000238636 0.00025946 0.00140994 -9.29297e-05 0.000262527 0.00118008 0.000908927 0.0013913 0.000317629 0.00161019 -0.000305809 -0.000290833 -0.000302293 -0.000284855 -0.000960021 -0.000347415 -0.000657452 -0.000439654 -0.000739854 -0.00133782 -0.00112586 -0.00153056 0.000705794 -0.000313851 -2.4317e-05 0.000312696 -0.000605562 -0.00101971 -3.61086e-05 0.000608766 0.000502554 0.000730687
internal_weight=4747 558 4189 298 263 168 128 95 64 77 55 3002 228 2774 1187 666 521 462 633 609 563 515 456 59 2622 51 260 152 427 160 108 86 48 86 62 225 138 76 62 87 2413 2359 2338 2308 54 1894 230 157 121 51 73 52 49 267 134 98 133 63 76 321 266 161
internal_count=4747 558 4189 298 263 168 128 95 64 77 55 3002 228 2774 1187 666 521 462 633 609 563 515 456 59 2622 51 260 152 427 160 108 86 48 86 62 225 138 76 62 87 2413 2359 2338 2308 54 1894 230 157 121 51 73 52 49 267 134 98 133 63 76 321 266 161
is_linear=0
shrinkage=0.03


Tree=4
num_leaves=63
num_cat=0
split_feature=1 1 2 2 2 2 2 2 1 1 1 2 2 2 2 2 1 2 2 2 1 2 2 2 2 2 2 2 1 1 2 1 1 1 2 2 1 1 2 1 1 2 2 1 2 2 2 1 2 1 1 1 2 2 2 2 2 2 2 2 1 1
split_gain=2.02312 0.246622 0.3746 0.164025 0.357825 0.403708 0.49331 0.161855 0.14601 0.113113 0.0964021 0.084253 0.112716 0.101979 0.110772 0.107343 0.0734393 0.135256 0.133792 0.0940657 0.0939898 0.175144 0.0781698 0.0764391 0.0652404 0.105691 0.0807024 0.0624735 0.0606243 0.0583803 0.0525922 0.052003 0.0458155 0.042723 0.04221 0.086822 0.0547476 0.0574135 0.0663629 0.0469373 0.116608 0.0424328 0.0901266 0.0415789 0.0383462 0.0869625 0.134723 0.0565248 0.0980234 0.0964835 0.0463378 0.0351542 0.0334728 0.0332542 0.0317031 0.0397737 0.0709216 0.0312226 0.0300813 0.0243984 0.0402779 0.0362829
threshold=0.031474969219916292 0.043441329471149544 1.6383635073873912 3.202900997057768 11.182463170438753 7.8940839215657288 5.6146279786697564 0.8488268681776806 0.019661758497150749 0.055934830295606107 0.091666967952461431 2.8982733539482575 1.2532664248499263 4.0890721601308355 5.1348768466233397 6.6374750997419065 0.021348772264613198 2.1522413210630043 3.6244738384272366 1.3042862644373117 0.026988125908113041 1.5280812575029097 3.3579873315672546 1.1748554363846051 7.6034668838599062 13.823036288364783 10.013449948730942 1.8285997219823611 0.035825865413830572 0.022336982856154122 4.0138712066165283 0.022826397265842794 0.026988125908113041 0.020206761525999432 8.5094848133390091 18.637917963746045 0.017862230630558276 0.018936872196337221 3.5933029889137393 0.016311653606500113 0.013002723325021148 1.2211642790407671 1.4009205362165302 0.009097738595728792 6.7892217890072288 8.2393429290491778 9.1808389576229334 0.027808636449044178 15.151237803198841 0.026527861115382228 0.025202427059914476 0.02339019120064079 1.9041574513544208 2.6114097259525795 5.9114308429701046 5.0157034281822979 4.6129844789279266 5.4481399146039271 7.6034668838599062 0.67119903261789116 0.0070974208154905285 0.012213336736907535
decision_type=2 2 2 2 2 2 2 2 2 2 2 2 2 2 2 2 2 2 2 2 2 2 2 2 2 2 2 2 2 2 2 2 2 2 2 2 2 2 2 2 2 2 2 2 2 2 2 2 2 2 2 2 2 2 2 2 2 2 2 2 2 2
left_child=7 11 -3 -4 5 6 -5 29 34 -6 -11 12 -2 -13 -15 -16 19 20 22 -10 23 -22 32 -18 -17 26 -26 -14 -27 59 -20 -25 53 -21 36 -36 41 -38 52 40 -37 43 -43 -9 54 58 -47 49 -49 50 51 -48 -39 -19 55 56 -32 -57 -46 60 -1 -62
right_child=1 2 3 4 9 -7 -8 8 16 10 -12 13 27 14 15 24 17 18 30 33 21 -23 -24 31 25 28 -28 -29 -30 -31 44 -33 -34 -35 35 39 37 38 -40 -41 -42 42 -44 -45 45 46 47 48 -50 -51 -52 -53 -54 -55 -56 57 -58 -59 -60 -61 61 -63
leaf_value=-0.00074178198845659842 0.0018351571541279554 0.0056948076687487106 9.251950966084704e-05 0.0049918289815316036 0.0022204513804843793 0.0068717077138045653 -0.0005016478453762829 -0.00057011479742797818 0.0025214951737767216 -0.0012991240626433864 0.0013897713343612849 0.0029043308833009893 -0.0016651925093240357 -0.00031676636387904485 0.0031428453752887437 -0.00037851959267365084 0.0014352460959926247 0.0010307350200177594 -0.0012970268990777965 -0.00012125152348349971 -0.00032539432751946148 -0.003757503471747243 0.0026179405102005186 0.00040952426986768845 0.0014584513929219462 0.0017034314233543618 0.0037528995289043948 0.00036398749934354175 -0.00038421021834496527 -0.0017736716342453911 -0.00026046899805680428 -0.0011160399759432575 0.0015283894591408258 0.0007260393297267169 0.00042497057681697802 -0.00014908624093302271 -0.0010850253610316519 -0.00025880406109186319 -0.0011074225019700335 0.00017825443031532423 -0.0026831730829927928 -0.0010229900546448261 -0.00025479438918409866 0.00022218133229464661 -0.00062741293925149683 0.0020371362633886747 5.0410124672634989e-05 -0.00065711112520859939 0.0021439149706963109 -0.0022841458310089678 0.0010847218005536972 -0.0011892429148512226 0.0012235876010602404 -0.00020637825095036531 0.0010654361650813372 -0.0011951622780739294 0.0019983696615831418 0.0003222493884032187 -0.0020802223274443781 -0.00092865742222638791 0.00029096287321987219 -0.00056338842921592241
leaf_weight=233 31 28 34 31 39 26 28 77 21 24 24 37 22 36 30 21 20 33 28 83 32 23 23 30 37 21 22 36 31 41 29 61 41 151 204 44 156 26 38 42 26 151 1532 264 29 28 50 23 22 23 22 35 29 48 48 26 22 23 23 150 88 91
leaf_count=233 31 28 34 31 39 26 28 77 21 24 24 37 22 36 30 21 20 33 28 83 32 23 23 30 37 21 22 36 31 41 29 61 41 151 204 44 156 26 38 42 26 151 1532 264 29 28 50 23 22 23 22 35 29 48 48 26 22 23 23 150 88 91
internal_value=1.80187e-12 0.00169692 0.00243905 0.00199652 0.0023729 0.00375723 0.00238476 -0.000226039 -0.000149571 0.00102038 4.53236e-05 0.00116093 0.000374822 0.00145864 0.00118849 0.00152299 0.000158908 7.96735e-06 0.000225408 0.000598116 -0.000746524 -0.00176064 0.00101369 -0.000244034 0.00115484 0.00144494 0.00231401 -0.000405701 0.000458876 -0.000680793 -3.9791e-05 -0.000613107 0.000711246 0.000425505 -0.000268363 5.65139e-05 -0.000313529 -0.000733297 -0.0001433 -0.000614604 -0.00109032 -0.000261887 -0.000323717 4.32758e-05 4.75603e-05 -0.000175381 0.000105014 -0.000204125 0.000712279 -0.000521342 -0.000142422 -0.000460035 0.000522821 0.000297631 0.000431682 0.00012748 0.000713932 -0.000482908 -0.00127 -0.000601063 -0.000481793 -0.000143372
internal_weight=4747 558 234 206 172 85 59 4189 3586 87 48 324 89 235 198 162 997 742 576 255 166 55 145 111 132 111 59 58 52 603 431 91 122 234 2589 316 2273 249 93 112 70 2024 1683 341 403 255 203 175 45 130 107 85 55 81 148 100 51 49 52 562 412 179
internal_count=4747 558 234 206 172 85 59 4189 3586 87 48 324 89 235 198 162 997 742 576 255 166 55 145 111 132 111 59 58 52 603 431 91 122 234 2589 316 2273 249 93 112 70 2024 1683 341 403 255 203 175 45 130 107 85 55 81 148 100 51 49 52 562 412 179
is_linear=0
shrinkage=0.03


Tree=5
num_leaves=63
num_cat=0
split_feature=1 0 1 1 0 0 1 1 1 1 0 1 1 0 1 1 0 0 1 0 0 0 0 0 1 1 0 0 1 1 0 0 0 1 0 0 1 1 0 1 0 0 0 0 0 0 1 0 0 1 1 1 0 0 0 0 0 1 0 0 1 0
split_gain=1.90355 0.256393 0.122328 0.0839949 0.281107 0.201344 0.108435 0.148347 0.088208 0.096477 0.0881692 0.0469717 0.0447578 0.166077 0.0694904 0.043302 0.0673954 0.0668529 0.0527043 0.0510908 0.0572429 0.0593794 0.0613337 0.071939 0.0548985 0.0423343 0.0418251 0.0386843 0.0316258 0.0813032 0.108896 0.14932 0.0350228 0.0292143 0.0369189 0.0271037 0.0269311 0.0406151 0.0687907 0.0534328 0.0346718 0.0245209 0.0357774 0.0573909 0.0431304 0.0286038 0.0264654 0.0246497 0.0495726 0.0329106 0.0512974 0.0314006 0.0839984 0.0241516 0.0439961 0.0428812 0.020997 0.0490781 0.0195785 0.0190159 0.0186394 0.0478884
threshold=0.031474969219916292 -0.12597849755035381 0.018936872196337221 0.059828576326291877 -0.29745986038394406 -0.15097249987665098 0.037470329107242718 0.047165850636685221 0.044717468927938341 0.048938468293963151 -0.13541752778981389 0.053533938923714462 0.017793549079128574 -0.046960454761395147 0.017065787159413034 0.022336982856154122 -0.074602715650670823 -0.060421978270083936 0.019898708564725084 -0.062198843434961064 -0.065326301176344956 -0.068310253019993258 -0.070861143547249414 -0.072882346484269875 0.025202427059914476 0.0045277003119660068 -0.12076248844458946 -0.049860908090655236 0.028401382865448549 0.029238147051047051 -0.080587127270455791 -0.09409155785482913 -0.084981561591323682 0.017612160575147657 -0.055945000945000982 -0.20910192026011235 0.036510692137591658 0.033609201399872009 -0.088866001170406758 0.034729501264756157 -0.1124090705799498 -0.058267464383094651 -0.056175976750229777 -0.054333439774298269 -0.043821560666650543 -0.061144533831566754 0.014503827193694621 -0.039972529091184643 -0.041001353803218336 0.016032616806488164 0.016487386723460309 0.014963840551792182 -0.038308491184043884 -0.082173842832399188 -0.074602715650670823 -0.076004399962688193 -0.090069414094785125 0.026527861115382228 -0.078645510325350818 -0.046960454761395147 0.021348772264613198 -0.057994020308770537
decision_type=2 2 2 2 2 2 2 2 2 2 2 2 2 2 2 2 2 2 2 2 2 2 2 2 2 2 2 2 2 2 2 2 2 2 2 2 2 2 2 2 2 2 2 2 2 2 2 2 2 2 2 2 2 2 2 2 2 2 2 2 2 2
left_child=2 3 12 5 -5 8 -7 10 -2 -10 -8 -11 14 -14 25 16 -4 19 -18 20 21 22 23 28 -24 -1 -3 33 53 -30 31 -31 -33 34 -16 -6 37 38 -28 -39 -38 45 -43 -44 -45 -27 -46 48 49 -48 -51 52 -49 56 55 58 -17 -58 -55 -29 -20 -62
right_child=1 26 15 4 35 6 7 -9 9 11 -12 -13 13 -15 27 17 18 -19 60 -21 -22 -23 24 -25 -26 41 36 59 29 30 -32 32 -34 -35 -36 -37 40 39 -40 -41 -42 42 43 44 46 -47 47 51 -50 50 -52 -53 -54 54 -56 -57 57 -59 -60 -61 61 -63
leaf_value=-0.00073373871209513747 -0.00073231570295650842 -7.1915675486837109e-06 -0.00071137770400698283 0.0010510551699094081 0.0036458213296083901 0.0012807370657101273 0.003111771070237817 0.0013798844295999277 0.0030501274541830238 -0.00042350696213543413 0.0055176595705919542 0.0013990112279674836 -0.00044753516572253665 -0.0030858269016607663 0.0010164620648138224 -0.00022659829777798481 -0.00011811032878888889 -0.0014381093917075884 0.00074277906677513539 0.0013045910466462373 -0.0011241146053551981 0.00098573463772481766 -0.0018973836849533743 0.0014461530751452363 -6.4784569299912884e-05 -0.00023029708070680498 0.00060289624191701735 0.0014939626329578458 0.0012101803122697254 -0.0011568054185543014 -0.0021171110918591944 0.002045271007310865 0.00040156777901574967 -0.00097233914770185933 -0.00044843108102213589 0.0050321473032236101 0.0008565743597081074 -0.00063238688558340064 0.0024608937609170013 0.0011299354380753357 0.0020608224981333479 0.00095855135869766985 -0.0015889682652195916 9.0639026282166223e-06 -0.00028726253503699278 -0.0016112099681049586 -0.0002872757714566043 -0.0028353632893413304 0.00055849709567458677 -0.0022595164747908712 -0.00035626063839747356 -0.00010696634350876723 -0.00040766117034544204 0.000447291561957592 -0.00091043082221100723 0.0014822968662801114 -0.00036816899164965967 -0.0021246045859615232 -0.0005160605322217216 0.00045825559839543598 0.00064442087317002005 -0.00076106668723514305
leaf_weight=209 22 35 59 38 22 30 29 23 23 20 26 35 204 24 30 70 141 33 211 24 46 48 31 29 28 27 47 27 52 38 22 28 20 24 32 30 39 30 29 32 48 21 30 414 1664 27 70 23 36 25 26 21 29 39 36 22 41 22 37 39 80 30
leaf_count=209 22 35 59 38 22 30 29 23 23 20 26 35 204 24 30 70 141 33 211 24 46 48 31 29 28 27 47 27 52 38 22 28 20 24 32 30 39 30 29 32 48 21 30 414 1664 27 70 23 36 25 26 21 29 39 36 22 41 22 37 39 80 30
internal_value=-1.10428e-12 0.00164601 -0.000219258 0.00224668 0.00301236 0.00191537 0.00281352 0.00340305 0.000945372 0.00141857 0.0042491 0.000736277 -0.000321199 -0.00072525 -0.00028799 3.85574e-05 0.000243423 -0.000121705 0.000365356 -5.30773e-05 -0.000106581 -2.34438e-05 -0.000117503 2.6042e-07 -0.00102768 -0.000324142 0.000957548 0.000335637 -9.79384e-05 0.000235583 -0.000233668 0.000248143 0.00136039 -8.36287e-05 0.000260388 0.00444562 0.00110762 0.000847017 0.00131187 0.000277199 0.00152099 -0.000288665 -0.000274196 -0.000285268 -0.000268322 -0.000920754 -0.000328955 -0.000630591 -0.000418816 -0.000709587 -0.00128923 -0.00108605 -0.00148145 -0.000297801 -1.35436e-05 0.000315925 -0.000584196 -0.000981527 -2.17088e-05 0.000881954 0.00057772 0.000261106
internal_weight=4747 558 4189 298 90 208 108 78 100 78 55 55 3002 228 2774 1187 521 666 462 633 609 563 515 456 59 2622 260 152 427 160 108 86 48 86 62 52 225 138 76 62 87 2413 2359 2338 2308 54 1894 230 157 121 51 73 52 267 134 98 133 63 76 66 321 110
internal_count=4747 558 4189 298 90 208 108 78 100 78 55 55 3002 228 2774 1187 521 666 462 633 609 563 515 456 59 2622 260 152 427 160 108 86 48 86 62 52 225 138 76 62 87 2413 2359 2338 2308 54 1894 230 157 121 51 73 52 267 134 98 133 63 76 66 321 110
is_linear=0
shrinkage=0.03


Tree=6
num_leaves=63
num_cat=0
split_feature=1 1 2 2 2 2 2 2 1 1 1 2 2 2 2 2 1 2 2 1 2 2 2 2 1 2 2 1 2 2 1 1 1 2 2 1 1 2 1 1 2 2 1 1 1 2 2 2 1 1 2 2 1 2 2 2 2 2 2 2 2 1
split_gain=1.79105 0.221585 0.353096 0.15485 0.336777 0.382422 0.46656 0.148456 0.130516 0.108866 0.0961417 0.0796369 0.105284 0.0952925 0.103479 0.10171 0.0654524 0.127184 0.125259 0.0889839 0.164483 0.0880876 0.0728896 0.0714785 0.0621464 0.0616276 0.0892695 0.0550573 0.0497146 0.0494609 0.0490773 0.0459276 0.0423759 0.0396749 0.0814465 0.0499342 0.0520822 0.0625061 0.0442181 0.109678 0.0397861 0.0844942 0.0391396 0.0389012 0.0363458 0.0362102 0.0819471 0.126476 0.0517292 0.0912934 0.0912652 0.0444945 0.0640351 0.0314315 0.0305235 0.0295519 0.0363919 0.0663315 0.0288204 0.0283625 0.0237178 0.0363436
threshold=0.031474969219916292 0.043441329471149544 1.6383635073873912 3.202900997057768 11.182463170438753 7.8940839215657288 5.6146279786697564 0.8488268681776806 0.019661758497150749 0.055934830295606107 0.091666967952461431 2.8982733539482575 1.2532664248499263 4.0890721601308355 5.1348768466233397 6.6374750997419065 0.021348772264613198 2.1522413210630043 3.6244738384272366 0.026988125908113041 1.5280812575029097 1.3042862644373117 3.3579873315672546 1.1748554363846051 0.036510692137591658 21.431922573755415 7.6034668838599062 0.022336982856154122 4.0138712066165283 1.3487489537534187 0.039050007314319284 0.035346921779812593 0.026988125908113041 8.5094848133390091 18.637917963746045 0.017862230630558276 0.018936872196337221 3.5933029889137393 0.016311653606500113 0.013002723325021148 1.2211642790407671 1.4009205362165302 0.020206761525999432 0.009097738595728792 0.023516520840429322 6.7892217890072288 8.2393429290491778 9.1808389576229334 0.027808636449044178 0.026527861115382228 15.151237803198841 21.431922573755415 0.022826397265842794 1.9041574513544208 2.6114097259525795 5.9114308429701046 5.0157034281822979 4.6129844789279266 5.4481399146039271 7.6034668838599062 0.67119903261789116 0.0079071626291713961
decision_type=2 2 2 2 2 2 2 2 2 2 2 2 2 2 2 2 2 2 2 2 2 2 2 2 2 2 2 2 2 2 2 2 2 2 2 2 2 2 2 2 2 2 2 2 2 2 2 2 2 2 2 2 2 2 2 2 2 2 2 2 2 2
left_child=7 11 -3 -4 5 6 -5 27 33 -6 -11 12 -2 -13 -15 -16 21 19 22 23 -21 -10 32 -18 -14 26 -17 60 -20 -25 31 -28 54 35 -35 40 -37 53 39 -36 43 -42 -23 -9 -31 55 59 -48 49 51 -50 52 -49 -38 -19 56 57 -30 -58 -47 61 -1
right_child=1 2 3 4 9 -7 -8 8 16 10 -12 13 24 14 15 25 17 18 28 20 -22 42 -24 29 -26 -27 30 -29 45 44 -32 -33 -34 34 38 36 37 -39 -40 -41 41 -43 -44 -45 -46 46 47 48 50 -51 -52 -53 -54 -55 -56 -57 58 -59 -60 -61 -62 -63
leaf_value=-0.00069171289243240611 0.0017356784159557952 0.0054610152848597084 2.046402173993342e-05 0.0047787443515394006 0.002101333225504137 0.0066104059981612054 -0.00056371446632380996 -0.00054404557248662142 0.0024281040421088359 -0.0013752017114893533 0.0013100597308948634 0.0027755079960853262 0.00028237685291586736 -0.00033798750800391041 0.0030169538685586301 -0.0003876812178974173 0.0013908821716904639 0.00099581679191694332 -0.0012583954607336115 -0.00031778102871612643 -0.0036437983443434146 -0.00012351518439364631 0.0025324146548771987 -0.0018668313111577714 -0.0017836524490267038 -0.00036764727217483922 0.0016854090408555099 -0.0017095230452193902 -0.00025291685335105285 0.0005599361982557081 0.00089084327792721412 0.003487557018175721 0.0014771150559096074 0.00042007987938311143 -0.00013569136531176894 -0.0010314381489409312 -0.0002454429678618908 -0.0010701881816586184 0.00018275161040946843 -0.0025933297094888983 -0.00098316875335741918 -0.00023936391244053898 0.00068746398906385374 0.00022231386080007228 -0.00081627216190099721 -0.00060638054948428577 0.0019764844544988593 -0.00084785112129636753 -0.00063976496518792006 -0.0022132903928666014 0.0020629790152253752 -0.0010878402703712062 0.00094477336333589033 0.0011910370384053937 -0.00018941552314117872 0.0010340341027767863 -0.0011397089358741561 0.0019316032156348228 0.00031816081629823084 -0.0020170729848272774 -0.00089376939026406031 -0.00012034737114824333
leaf_weight=240 31 28 34 31 39 26 28 77 21 24 24 37 38 36 30 21 20 33 28 32 23 83 23 21 20 22 35 41 29 31 34 20 41 204 44 156 26 38 42 26 151 1532 151 264 39 29 28 29 23 23 22 31 47 29 48 48 26 22 23 23 150 172
leaf_count=240 31 28 34 31 39 26 28 77 21 24 24 37 38 36 30 21 20 33 28 32 23 83 23 21 20 22 35 41 29 31 34 20 41 204 44 156 26 38 42 26 151 1532 151 264 39 29 28 29 23 23 22 31 47 29 48 48 26 22 23 23 150 172
internal_value=-3.38224e-12 0.00159663 0.00230009 0.00187045 0.00223614 0.00357915 0.00224334 -0.00021268 -0.000139445 0.000924007 -3.2571e-05 0.00108857 0.000324307 0.00137802 0.00111687 0.00144017 0.000152208 9.71125e-06 0.000220563 -0.00072192 -0.00170866 0.000566845 0.000983291 -0.000232995 -0.000430047 0.00108182 0.00137171 -0.000648203 -3.60389e-05 -0.000589891 0.00178684 0.00234074 0.000691244 -0.000251758 6.32116e-05 -0.000295547 -0.000696438 -0.000134501 -0.000586798 -0.00104853 -0.000246228 -0.000306099 0.000399809 4.9265e-05 -0.000206808 4.88891e-05 -0.000167754 0.000104436 -0.000195092 -0.000498554 0.000681577 -0.000129966 0.000260746 0.000511974 0.000293457 0.000422159 0.000128459 0.000689425 -0.000455403 -0.00123034 -0.000570776 -0.000453182
internal_weight=4747 558 234 206 172 85 59 4189 3586 87 48 324 89 235 198 162 997 742 576 166 55 255 145 111 58 132 110 603 431 91 89 55 122 2589 316 2273 249 93 112 70 2024 1683 234 341 70 403 255 203 175 130 45 107 76 55 81 148 100 51 49 52 562 412
internal_count=4747 558 234 206 172 85 59 4189 3586 87 48 324 89 235 198 162 997 742 576 166 55 255 145 111 58 132 110 603 431 91 89 55 122 2589 316 2273 249 93 112 70 2024 1683 234 341 70 403 255 203 175 130 45 107 76 55 81 148 100 51 49 52 562 412
is_linear=0
shrinkage=0.03


Tree=7
num_leaves=63
num_cat=0
split_feature=1 1 2 1 2 2 2 1 2 1 2 1 2 2 1 2 2 2 2 1 2 2 1 2 2 2 2 1 2 2 1 2 1 2 2 1 1 2 1 1 2 2 1 1 2 1 2 2 2 1 1 2 2 1 2 2 1 2 2 1 2 2
split_gain=1.6852 0.20993 0.621923 0.332671 0.143603 0.289278 0.264899 0.326819 0.24851 0.15595 0.139682 0.122803 0.117101 0.0973554 0.0658752 0.0620456 0.119608 0.110035 0.0878021 0.0615841 0.119667 0.117857 0.0837249 0.154762 0.0828816 0.0685818 0.0672541 0.0533855 0.0467764 0.0467587 0.0467532 0.0465377 0.0398715 0.0373301 0.076633 0.0469831 0.0490042 0.058812 0.0416049 0.103196 0.0374347 0.0795006 0.0368264 0.0366021 0.0357985 0.0341978 0.0340702 0.077104 0.119001 0.048672 0.085898 0.0858714 0.0418649 0.0602507 0.0295739 0.0289782 0.0568883 0.0432201 0.0287196 0.0281557 0.0278054 0.0342411
threshold=0.031474969219916292 0.059828576326291877 11.182463170438753 0.074128404939364664 2.4710617335151235 1.2532664248499263 4.0890721601308355 0.042377198168335094 0.92151924042859201 0.037470329107242718 0.8488268681776806 0.019661758497150749 5.5206155910076147 3.3579873315672546 0.036510692137591658 14.657066723337225 8.5094848133390091 6.7892217890072288 17.234086486572838 0.021348772264613198 2.1522413210630043 3.6244738384272366 0.026988125908113041 1.5280812575029097 1.3042862644373117 3.3579873315672546 1.1748554363846051 0.015447756326071569 4.0138712066165283 9.6413078614406356 0.041240211337703205 1.3487489537534187 0.026988125908113041 8.5094848133390091 18.637917963746045 0.017862230630558276 0.018936872196337221 3.5933029889137393 0.016311653606500113 0.013002723325021148 1.2211642790407671 1.4009205362165302 0.020206761525999432 0.009097738595728792 11.491244224744136 0.023516520840429322 6.7892217890072288 8.2393429290491778 9.1808389576229334 0.027808636449044178 0.026527861115382228 15.151237803198841 21.431922573755415 0.022826397265842794 1.9041574513544208 0.48755849794454736 0.022116651541057439 0.67119903261789116 2.6114097259525795 0.025455407841983264 5.9114308429701046 5.0157034281822979
decision_type=2 2 2 2 2 2 2 2 2 2 2 2 2 2 2 2 2 2 2 2 2 2 2 2 2 2 2 2 2 2 2 2 2 2 2 2 2 2 2 2 2 2 2 2 2 2 2 2 2 2 2 2 2 2 2 2 2 2 2 2 2 2
left_child=10 4 3 -3 5 8 7 13 -2 -7 27 33 14 -6 -8 16 17 -14 -17 24 22 25 26 -24 -13 32 -21 -1 -23 -18 -20 -28 58 35 -35 40 -37 54 39 -36 43 -42 -26 -12 -31 -33 60 59 -49 50 52 -51 53 -50 -38 -29 57 -57 -22 -48 61 -30
right_child=1 2 -4 -5 6 9 12 -9 -10 -11 11 19 15 -15 -16 18 29 -19 30 20 21 28 23 -25 42 -27 31 55 46 44 -32 45 -34 34 38 36 37 -39 -40 -41 41 -43 -44 -45 -46 -47 47 48 49 51 -52 -53 -54 -55 -56 56 -58 -59 -60 -61 -62 -63
leaf_value=-0.00048440789965516689 0.00023102152578789611 0.007705927544739098 0.00020961804747847573 0.0027109003451187162 0.00060676172575248137 0.0003245647543702613 -0.0011879875147357011 0.0059786807790398596 0.0045162088610231875 -0.0027497698878869411 -0.00052772420236248184 0.0023552609221743686 0.0021139982971362767 0.0033472489875275642 0.00096881665103137492 -0.00077661341015735394 0.0039113133653466189 -0.00011190905956587253 0.00063347278459166935 0.0013491557165980338 0.00096594229419927357 -0.0012206436088308692 -0.00030824762798147275 -0.0035344843562368461 -0.00011980973149043878 0.0024564422434195875 -0.001810826366501195 -0.00036791378259658811 0.00066874237292401681 0.001321029385527998 0.0023001667936997754 0.00054313808525612028 0.0014328015844973668 0.00040747749343769527 -0.00013162065371447666 -0.0010004949698689484 -0.00023807970878596488 -0.0010380824957514721 0.00017726907805938805 -0.0025155298884671469 -0.00095367367084088744 -0.00023218298003527108 0.00066684007341665105 0.00021564447065512384 0.0029512963009377317 -0.00079178400051135281 -0.0017679848867438494 0.0019171898975037039 -0.00082241557935927199 -0.00062057201467130487 -0.0021468917013186474 0.0020010895840823651 -0.0010552050027575705 0.000916430164633834 0.0011553059332072735 -9.0105721261352298e-05 -0.0024675035405743984 -0.0016634247995997696 -0.0001837330765738443 -0.00034527867234178953 0.0010030130725499475 -0.00044174066476276793
leaf_weight=478 29 24 42 24 28 33 26 25 21 27 77 21 41 20 25 23 21 39 33 20 33 28 32 23 83 23 21 30 51 22 28 31 41 204 44 156 26 38 42 26 151 1532 151 264 27 39 31 28 29 23 23 22 31 47 29 30 32 33 48 21 48 49
leaf_count=478 29 24 42 24 28 33 26 25 21 27 77 21 41 20 25 23 21 39 33 20 33 28 32 23 83 23 21 30 51 22 28 31 41 204 44 156 26 38 42 26 151 1532 151 264 27 39 31 28 29 23 23 22 31 47 29 30 32 33 48 21 48 49
internal_value=5.16065e-12 0.00154873 0.00287564 0.00520841 0.00129355 0.000345517 0.00158485 0.00319728 0.0020308 -0.00105889 -0.0002063 -0.000135262 0.00117184 0.00174863 -0.000130731 0.00145573 0.0018213 0.00102887 0.000802942 0.000147642 9.41991e-06 0.000213946 -0.000700263 -0.0016574 0.00054984 0.000953793 -0.000226005 -0.000628757 -3.49577e-05 0.00272693 0.00139851 -0.000572194 0.000670506 -0.000244206 6.13153e-05 -0.00028668 -0.000675544 -0.000130466 -0.000569195 -0.00101707 -0.000238841 -0.000296916 0.000387815 4.7787e-05 0.00221934 -0.000200604 4.74224e-05 -0.000162721 0.000101303 -0.000189239 -0.000483598 0.000661129 -0.000126067 0.000252923 0.000496615 -0.00118075 -0.00143743 -0.000914225 0.000284653 -0.00119343 0.000409495 0.000124606
internal_weight=4747 558 90 48 468 110 358 73 50 60 4189 3586 285 48 51 234 150 80 84 997 742 576 166 55 255 145 111 603 431 70 61 91 122 2589 316 2273 249 93 112 70 2024 1683 234 341 49 70 403 255 203 175 130 45 107 76 55 125 95 63 81 52 148 100
internal_count=4747 558 90 48 468 110 358 73 50 60 4189 3586 285 48 51 234 150 80 84 997 742 576 166 55 255 145 111 603 431 70 61 91 122 2589 316 2273 249 93 112 70 2024 1683 234 341 49 70 403 255 203 175 130 45 107 76 55 125 95 63 81 52 148 100
is_linear=0
shrinkage=0.03


Tree=8
num_leaves=63
num_cat=0
split_feature=1 0 1 1 0 0 1 1 0 1 1 1 0 0 1 0 1 1 0 1 0 0 1 0 1 1 1 1 1 0 0 1 1 0 1 0 0 0 0 0 0 1 1 0 0 0 1 1 0 1 0 0 1 0 0 1 0 1 0 1 0 0
split_gain=1.5856 0.221617 0.101916 0.0760674 0.255477 0.197834 0.0977136 0.142259 0.0844552 0.0780239 0.0926209 0.0449339 0.0396749 0.0375668 0.0371457 0.155839 0.063983 0.0362197 0.0361251 0.027653 0.0400888 0.0383946 0.100008 0.0522947 0.0719332 0.0585742 0.0574041 0.0280252 0.0272604 0.0346519 0.025841 0.0253019 0.0772719 0.0566428 0.0372031 0.0416477 0.0404605 0.0443723 0.0271519 0.0350733 0.0659164 0.0551374 0.0524343 0.0331066 0.0263721 0.0269308 0.024258 0.0378954 0.0660441 0.0488657 0.0322244 0.0257396 0.0236997 0.0231907 0.073981 0.0631024 0.0348638 0.0339232 0.0230422 0.0424602 0.0400347 0.0347924
threshold=0.031474969219916292 -0.12597849755035381 0.018936872196337221 0.059828576326291877 -0.29745986038394406 -0.15097249987665098 0.037470329107242718 0.047165850636685221 -0.13541752778981389 0.044717468927938341 0.048938468293963151 0.053533938923714462 -0.12076248844458946 -0.076004399962688193 0.017793549079128574 -0.046960454761395147 0.017065787159413034 0.0045277003119660068 -0.049860908090655236 0.023870859280236884 -0.078091295505860955 -0.080587127270455791 0.028859691911356383 -0.10180299730921803 0.028401382865448549 0.026730995083378329 0.030278494916305587 0.029238147051047051 0.017612160575147657 -0.055945000945000982 -0.20910192026011235 0.022336982856154122 0.022658149969704666 -0.074602715650670823 0.020206761525999432 -0.070112536033366299 -0.058699524304501254 -0.055321996467161287 -0.062198843434961064 -0.065696575309693958 -0.068310253019993258 0.024790776427633426 0.026730995083378329 -0.070861143547249414 -0.06736737884314746 -0.070446647465068499 0.036510692137591658 0.033609201399872009 -0.087969171240082508 0.034729501264756157 -0.1124090705799498 -0.10001642575558477 0.019772952153201042 -0.059160628120838214 -0.056463322929906572 0.021838125317615382 -0.062637914204564812 0.021348772264613198 -0.054333439774298269 0.015500476023601278 -0.043821560666650543 -0.056463322929906572
decision_type=2 2 2 2 2 2 2 2 2 2 2 2 2 2 2 2 2 2 2 2 2 2 2 2 2 2 2 2 2 2 2 2 2 2 2 2 2 2 2 2 2 2 2 2 2 2 2 2 2 2 2 2 2 2 2 2 2 2 2 2 2 2
left_child=2 3 14 5 -5 9 -7 8 -8 -2 -11 -12 -3 19 16 -16 17 -1 28 20 -4 23 -23 27 25 -25 -26 -21 29 -18 -6 34 -33 -34 35 -15 -37 -38 39 40 41 43 -43 -35 45 -36 47 48 51 -49 -48 -14 -39 55 57 56 -46 -55 59 -19 -60 -61
right_child=1 12 13 4 30 6 7 -9 -10 10 11 -13 46 31 15 -17 18 58 -20 21 -22 22 -24 24 26 -27 -28 -29 -30 -31 -32 32 33 38 44 36 37 52 -40 -41 -42 42 -44 -45 53 -47 50 49 -50 -51 -52 -53 -54 54 -56 -57 -58 -59 60 61 -62 -63
leaf_value=-0.00067645831802262788 -0.00079394194868985892 -7.7417074569634031e-05 -0.0011190143983524116 0.00091961529424512071 0.0033747847426936709 0.0011806806209497154 0.0029107356277005428 0.0012141298454092894 0.0052654063021047755 0.0028275903429755053 -0.0005738942641764879 0.0012086511799134314 0.0011490396306284569 -0.001251620057049546 -0.00039223127141560645 -0.002947912481613457 0.00099514581495895992 -0.0016314964532155559 0.00086343536542368715 -0.00017953903321176766 0.00031808802019804713 5.3858897517784497e-05 -0.002428318613009261 0.0003202576472956155 0.0015275167906656862 -0.0011305387407684554 -1.6012969227241615e-05 -0.0015459701816011643 -0.00092813709983602161 -0.00042405910062370822 0.0047284315414726731 -0.0014738574936505287 0.0013600514604356782 -0.00025594556936994192 0.00048072391626192257 0.00077920668822681078 -0.0011623778792038079 -0.00018734072402796961 0.00068549218766677839 -0.00086980111581506209 0.0011311432214738727 0.0009657290796838843 -0.0006337496997522457 -0.0018516257554292679 0.00031457064194546545 0.0019338657478378579 0.00076014233681444938 -0.00065922549908282232 0.0024014201836608765 0.0010260986712091835 0.0019211106619331985 -0.00024037421814032962 0.00089792628720816638 0.002556828753426089 0.00013760334442787129 0.0012134553816426415 -0.0010457475730576192 0.00089918533440213645 2.2239444542851676e-05 0.00010051439296594769 -0.00030342257381509551 -0.0013423697118248256
leaf_weight=209 22 35 58 38 22 30 29 23 26 23 20 35 28 22 204 24 30 31 66 35 25 48 21 70 57 39 35 22 24 32 30 31 29 22 24 58 31 55 39 50 38 39 35 25 30 22 39 30 27 32 48 21 27 20 87 29 39 25 414 53 1894 21
leaf_count=209 22 35 58 38 22 30 29 23 26 23 20 35 28 22 204 24 30 31 66 35 25 48 21 70 57 39 35 22 24 32 30 31 29 22 24 58 31 55 39 50 38 39 35 25 30 22 39 30 27 32 48 21 27 20 87 29 39 25 414 53 1894 21
internal_value=7.91002e-13 0.00150227 -0.000200111 0.00206072 0.00278937 0.00174543 0.00263572 0.00319534 0.00402385 0.000783928 0.00122897 0.000560453 0.000862197 3.52133e-05 -0.000293159 -0.00066125 -0.000262905 -0.000297595 0.0003355 -0.000197123 -0.000686152 -7.29959e-05 -0.000701586 9.51156e-05 0.000322562 -0.000198835 0.000940304 -0.000706934 -6.96605e-05 0.000262653 0.00415573 0.00015781 -5.34408e-05 0.000105523 0.000296542 -2.29798e-05 0.000135091 -0.000195517 -4.11761e-05 -0.000176774 4.11584e-05 -0.000301151 0.000209219 -0.00110471 0.000519976 0.0011757 0.00100836 0.000761029 0.00121005 0.000210619 0.00140068 0.000553577 0.000170003 0.00038883 0.000648392 3.9216e-05 -0.000454305 0.00163592 -0.00026478 -0.000699418 -0.000245007 -0.000308953
internal_weight=4747 558 4189 298 90 208 108 78 55 100 78 55 260 1187 3002 228 2774 2622 152 410 83 327 69 258 201 109 92 57 86 62 52 777 308 277 469 193 171 113 248 209 159 121 74 47 276 46 225 138 76 62 87 49 82 230 132 98 69 45 2413 105 2308 74
internal_count=4747 558 4189 298 90 208 108 78 55 100 78 55 260 1187 3002 228 2774 2622 152 410 83 327 69 258 201 109 92 57 86 62 52 777 308 277 469 193 171 113 248 209 159 121 74 47 276 46 225 138 76 62 87 49 82 230 132 98 69 45 2413 105 2308 74
is_linear=0
shrinkage=0.03


Tree=9
num_leaves=63
num_cat=0
split_feature=1 1 2 1 2 2 2 1 2 1 2 2 2 1 1 1 2 2 1 2 2 1 2 2 2 2 1 1 2 2 1 2 1 1 2 2 1 1 2 1 1 2 2 1 1 2 1 1 2 1 1 1 1 1 1 1 2 1 2 1 2 2
split_gain=1.49189 0.185849 0.581349 0.305104 0.135925 0.272126 0.248736 0.303868 0.235792 0.148414 0.128091 0.110598 0.123753 0.118349 0.232565 0.10985 0.0910271 0.0836243 0.0564752 0.112517 0.111797 0.0786984 0.145191 0.077574 0.0646426 0.0631207 0.0517895 0.0488393 0.0513241 0.0497736 0.0443499 0.0442763 0.0429873 0.0380634 0.0351468 0.0716514 0.0428873 0.0444491 0.0552637 0.0390552 0.0968883 0.0352706 0.0745702 0.0341737 0.033774 0.0324549 0.0718591 0.0999836 0.105211 0.102185 0.0800129 0.063716 0.0335762 0.0519825 0.0377179 0.0444554 0.0328785 0.0280472 0.0738743 0.0715877 0.0275915 0.0269278
threshold=0.031474969219916292 0.059828576326291877 11.182463170438753 0.074128404939364664 2.4710617335151235 1.2532664248499263 4.0890721601308355 0.042377198168335094 0.92151924042859201 0.037470329107242718 0.8488268681776806 7.6034668838599062 14.657066723337225 0.034729501264756157 0.041240211337703205 0.019661758497150749 3.3579873315672546 17.234086486572838 0.021348772264613198 2.1522413210630043 3.6244738384272366 0.026988125908113041 1.5280812575029097 1.3042862644373117 3.3579873315672546 1.1748554363846051 0.015447756326071569 0.035346921779812593 9.1808389576229334 10.816318597113559 0.022826397265842794 4.0138712066165283 0.041240211337703205 0.026988125908113041 8.5094848133390091 18.637917963746045 0.017862230630558276 0.018936872196337221 3.5933029889137393 0.016311653606500113 0.013002723325021148 1.2211642790407671 1.4009205362165302 0.009097738595728792 0.020206761525999432 6.7094434829545948 0.027808636449044178 0.026730995083378329 8.6738346782264468 0.025202427059914476 0.029238147051047051 0.023870859280236884 0.028859691911356383 0.024050748471814192 0.025455407841983264 0.027314565558168424 5.372515469433198 0.018215558919441596 0.48755849794454736 0.022116651541057439 1.9041574513544208 2.6114097259525795
decision_type=2 2 2 2 2 2 2 2 2 2 2 2 2 2 2 2 2 2 2 2 2 2 2 2 2 2 2 2 2 2 2 2 2 2 2 2 2 2 2 2 2 2 2 2 2 2 2 2 2 2 2 2 2 2 2 2 2 2 2 2 2 2
left_child=10 4 3 -3 5 8 7 16 -2 -7 26 13 27 -8 -15 34 -6 -14 23 21 24 25 -23 -17 33 -20 -1 -13 -29 -30 -27 -22 -19 61 36 -36 41 -38 60 40 -37 43 -43 -12 -25 52 47 48 -47 51 -48 -50 53 56 -55 -56 -33 -28 -59 -60 -39 -21
right_child=1 2 -4 -5 6 9 11 -9 -10 -11 15 12 17 14 -16 18 -18 32 19 20 31 22 -24 44 -26 30 57 28 29 -31 -32 45 -34 -35 35 39 37 38 -40 -41 -42 42 -44 -45 -46 46 50 -49 49 -51 -52 -53 -54 54 55 -57 -58 58 59 -61 -62 -63
leaf_value=-0.00045648147001758774 0.00017620014283677626 0.0073528863699175414 0.00012809765267385436 0.0025692881247960033 0.0005619810717845602 0.00028223898727446794 -0.0010559360826543221 0.0057449331823736429 0.0043502938973584348 -0.0027168940649264389 -0.00050249911155309771 0.0011740899342112243 -0.00080303215887397525 0.0024299417618154121 -0.00099554513581097122 0.0022732981367568884 0.0032119045064391682 0.00058613349175588641 0.0013067583153024314 0.0009356840325265445 -0.0011885393281201165 -0.00030022285936865957 -0.0034251082056890362 -0.00011624112434920866 0.0023868787790770115 0.00038977714501379525 -0.001835365200138374 0.0038626846810802819 0.0010364082343876362 0.0030827398565800288 -0.0010190658547655968 -0.00076371340674813838 0.0021842943687806838 0.0013978022188175377 0.00040205428317302203 -0.0001183149917051196 -0.00095134103753550256 -0.00022450763015792919 -0.0010025447641352288 0.00018089020857587457 -0.0024282135458018341 -0.00091706431173219874 -0.00021830430174504109 0.00021578643165495037 0.00063710223164708906 -0.0013198528833300719 0.0020912663960189091 -0.0023924911986770376 0.00020646954630829497 0.0017686574722014365 -0.00012131733243892851 -0.0016745822131633758 -0.00067252741563028054 0.0020687847271095962 -0.00034867535091259261 0.0015376413886880743 0.00076317362741313188 0.00056847210042178633 -0.00037988579249940811 -0.0023865767498136847 0.0011213677137255156 -0.00017755124976247315
leaf_weight=478 29 24 42 24 28 33 36 25 21 27 77 24 23 44 30 21 20 33 20 33 28 32 23 83 23 30 37 24 20 23 61 30 28 41 204 44 156 26 38 42 26 151 1532 264 151 53 24 21 71 31 38 21 22 25 22 23 22 24 32 32 29 48
leaf_count=478 29 24 42 24 28 33 36 25 21 27 77 24 23 44 30 21 20 33 20 33 28 32 23 83 23 30 37 24 20 23 61 30 28 41 204 44 156 26 38 42 26 151 1532 264 151 53 24 21 71 31 38 21 22 25 22 23 22 24 32 32 29 48
internal_value=3.73718e-12 0.0014572 0.00270569 0.00496109 0.0012171 0.000294761 0.00150051 0.00306297 0.00192932 -0.00106737 -0.000194108 0.00110029 0.00156884 0.000354885 0.00104123 -0.000126081 0.00166612 0.000738487 0.000141488 9.12344e-06 0.000207446 -0.000679031 -0.00160699 0.000526642 0.000928022 -0.00021923 -0.000598657 0.00233532 0.00275128 0.00213096 -0.000554612 -3.49756e-05 0.00131972 0.000652992 -0.000229119 6.73324e-05 -0.000270333 -0.000641861 -0.000122734 -0.000542339 -0.000976277 -0.000224626 -0.000280998 5.35929e-05 0.000369891 4.51728e-05 -0.00015557 -0.000435904 -0.000202447 0.000279037 0.000735167 -0.000222901 0.000406231 0.000600762 0.00113449 0.000615442 -0.000117723 -0.00114234 -0.000850949 -0.00138323 0.000485136 0.000275989
internal_weight=4747 558 90 48 468 110 358 73 50 60 4189 285 175 110 74 3586 48 84 997 742 576 166 55 255 145 111 603 91 67 43 91 431 61 122 2589 316 2273 249 93 112 70 2024 1683 341 234 403 259 197 176 123 62 92 144 122 70 45 52 125 88 64 55 81
internal_count=4747 558 90 48 468 110 358 73 50 60 4189 285 175 110 74 3586 48 84 997 742 576 166 55 255 145 111 603 91 67 43 91 431 61 122 2589 316 2273 249 93 112 70 2024 1683 341 234 403 259 197 176 123 62 92 144 122 70 45 52 125 88 64 55 81
is_linear=0
shrinkage=0.03


Tree=10
num_leaves=63
num_cat=0
split_feature=1 1 2 1 2 2 2 1 2 1 2 2 1 2 1 2 2 2 2 1 2 2 1 2 2 2 2 1 2 2 2 1 1 2 2 1 1 2 1 1 1 2 1 2 2 2 2 2 2 1 2 2 2 1 2 1 2 1 1 1 2 1
split_gain=1.40372 0.174866 0.546992 0.287073 0.127891 0.256043 0.234036 0.285909 0.221857 0.139643 0.120521 0.104236 0.103358 0.0856474 0.0593379 0.0557521 0.107662 0.105972 0.0786821 0.0531376 0.105867 0.10519 0.0740473 0.136611 0.0729893 0.0608222 0.0593902 0.0487288 0.0439656 0.0436501 0.0416595 0.0404468 0.0358139 0.0330696 0.0674168 0.0403527 0.0418222 0.0519976 0.0367471 0.0911622 0.033442 0.0320197 0.031778 0.0312072 0.108564 0.0535099 0.0388556 0.050938 0.0531893 0.0306984 0.0306207 0.0697409 0.114796 0.0432862 0.0807451 0.0770084 0.0388854 0.0560321 0.0277715 0.0268905 0.0266928 0.0263896
threshold=0.031474969219916292 0.059828576326291877 11.182463170438753 0.074128404939364664 2.4710617335151235 1.2532664248499263 4.0890721601308355 0.042377198168335094 0.92151924042859201 0.037470329107242718 0.8488268681776806 5.5206155910076147 0.019661758497150749 3.3579873315672546 0.036510692137591658 14.657066723337225 8.5094848133390091 6.7892217890072288 17.234086486572838 0.021348772264613198 2.1522413210630043 3.6244738384272366 0.026988125908113041 1.5280812575029097 1.3042862644373117 3.3579873315672546 1.1748554363846051 0.015447756326071569 9.6413078614406356 1.3487489537534187 4.0138712066165283 0.041240211337703205 0.026988125908113041 8.5094848133390091 18.637917963746045 0.017862230630558276 0.018936872196337221 3.5933029889137393 0.016311653606500113 0.013002723325021148 0.017065787159413034 11.491244224744136 0.020206761525999432 5.0718690366245829 5.7014296119935297 2.4710617335151235 1.8427256226258499 1.2211642790407671 1.4009205362165302 0.023516520840429322 6.7892217890072288 8.2393429290491778 9.1808389576229334 0.027808636449044178 15.151237803198841 0.026527861115382228 21.431922573755415 0.022826397265842794 0.015639081012269684 0.009097738595728792 7.6034668838599062 0.018215558919441596
decision_type=2 2 2 2 2 2 2 2 2 2 2 2 2 2 2 2 2 2 2 2 2 2 2 2 2 2 2 2 2 2 2 2 2 2 2 2 2 2 2 2 2 2 2 2 2 2 2 2 2 2 2 2 2 2 2 2 2 2 2 2 2 2
left_child=10 4 3 -3 5 8 7 13 -2 -7 27 14 33 -6 -8 16 17 -13 -17 24 22 25 26 -24 -14 32 -21 -1 -18 -28 -23 -20 -22 35 -35 40 -37 -38 39 -36 43 -30 -26 45 -45 46 47 59 -49 -31 -32 60 -53 55 -55 56 57 -54 -46 -12 -52 -29
right_child=1 2 -4 -5 6 9 11 -9 -10 -11 12 15 19 -15 -16 18 28 -19 31 20 21 30 23 -25 42 -27 29 61 41 49 50 -33 -34 34 38 36 37 -39 -40 -41 -42 -43 -44 44 58 -47 -48 48 -50 -51 51 52 53 54 -56 -57 -58 -59 -60 -61 -62 -63
leaf_value=-0.00044278702517289403 0.00017091405417384771 0.0071322998031973835 0.00012425472843460739 0.0024922093353234231 0.00054512165486812585 0.00027377180374142798 -0.0011650799834527648 0.0055725852102041238 0.004219785136436777 -0.0026353871967229577 -0.00048742413922975004 0.001994752759659072 0.0022050991521349972 0.0031155472844839093 0.00088191007152199749 -0.00077894128940027697 0.003689338362642697 -0.00018967185326171322 0.00056854953227395365 0.0012675555562600494 0.00026770938131246818 -0.001152883147089077 -0.00029121615603799 -0.0033223549807039291 -0.00011275386551383837 0.0023152724788119286 -0.0017375624831765888 -0.0017803043259521695 0.001199100295251066 0.00052656624973150741 0.0003870715450318892 0.0021187654948360952 0.0013558681293695215 0.00038999263924779367 -0.00011476553606123409 -0.00092280077929339868 0.00047058167863129214 -0.0009724684340854812 0.00017546350469014473 -0.0023553671826644297 0.00023646576499204992 0.0027409248783563573 0.00061798915656326669 0.0012390405535697936 -0.00011516087080271672 -0.00052964245030460381 0.00010806147788348167 -0.0009798003613958944 -0.000278095948664193 -0.0007382141547993971 -0.00053034858906577363 0.0018792122810347271 -0.0008004897498878939 -0.00063058015768942624 0.0019116233027505754 -0.0020421378776107144 -0.00102420040871948 0.00087637667692801418 -0.0011348231388255954 0.00015375414015026762 -0.0018988877055032747 -0.00082542008087991485
leaf_weight=478 29 24 42 24 28 33 26 25 21 27 77 41 21 20 25 23 21 39 33 20 81 28 32 23 83 23 21 37 22 31 148 28 41 204 44 156 55 38 42 26 136 27 151 55 121 570 318 138 329 39 29 28 29 23 22 23 31 47 30 250 23 88
leaf_count=478 29 24 42 24 28 33 26 25 21 27 77 41 21 20 25 23 21 39 33 20 81 28 32 23 83 23 21 37 22 31 148 28 41 204 44 156 55 38 42 26 136 27 151 55 121 570 318 138 329 39 29 28 29 23 22 23 31 47 30 250 23 88
internal_value=6.76453e-12 0.00141348 0.00262452 0.00481225 0.00118059 0.000285918 0.00145549 0.00297108 0.00187144 -0.00103535 -0.000188284 0.00106729 -0.000122299 0.00161613 -0.000161653 0.00133513 0.00168166 0.000929846 0.000716332 0.000137243 8.84974e-06 0.000201222 -0.00065866 -0.00155878 0.000510843 0.000900182 -0.000212653 -0.000580697 0.00254088 -0.000537974 -3.39263e-05 0.00128012 0.000633402 -0.000222246 6.53125e-05 -0.000262223 -0.000622605 -0.000119052 -0.000526069 -0.000946989 -0.000217888 0.00204868 0.000358794 -0.000250616 9.79033e-05 -0.000293301 -0.000172154 -0.000284382 -0.000485452 -0.000178097 4.38176e-05 -0.000155404 9.56967e-05 -0.000189666 0.000612275 -0.000467261 -0.000128736 0.00023652 -0.000317743 2.77332e-06 -0.00113566 -0.00110807
internal_weight=4747 558 90 48 468 110 358 73 50 60 4189 285 3586 48 51 234 150 80 84 997 742 576 166 55 255 145 111 603 70 91 431 61 122 2589 316 2273 249 93 112 70 2024 49 234 1888 206 1682 1112 794 467 70 403 255 203 175 45 130 107 76 151 327 52 125
internal_count=4747 558 90 48 468 110 358 73 50 60 4189 285 3586 48 51 234 150 80 84 997 742 576 166 55 255 145 111 603 70 91 431 61 122 2589 316 2273 249 93 112 70 2024 49 234 1888 206 1682 1112 794 467 70 403 255 203 175 45 130 107 76 151 327 52 125
is_linear=0
shrinkage=0.03


Tree=11
num_leaves=63
num_cat=0
split_feature=1 1 2 1 2 2 2 1 2 1 2 2 2 1 1 1 2 1 1 2 1 1 2 2 1 2 2 2 2 1 2 2 1 2 2 2 1 1 2 1 1 2 2 1 1 2 1 2 1 1 1 1 2 1 1 2 1 2 1 2 1 1
split_gain=1.32076 0.164531 0.514664 0.270107 0.120333 0.240911 0.220205 0.269012 0.208745 0.13139 0.113398 0.100383 0.115657 0.107212 0.219932 0.0972498 0.0805857 0.0528269 0.0770101 0.0630455 0.059638 0.0499971 0.0996107 0.0989732 0.0696711 0.128537 0.0686757 0.0572276 0.0558803 0.0458489 0.0410703 0.0391975 0.0339746 0.0454875 0.0311152 0.0634325 0.0379678 0.0393505 0.0489246 0.0345753 0.0857745 0.031509 0.0660591 0.0303913 0.0300584 0.0408709 0.0659654 0.0572533 0.035534 0.0318619 0.0405764 0.121102 0.0666 0.0298999 0.0288841 0.0279385 0.0273436 0.0259609 0.02483 0.0695084 0.0673569 0.0227803
threshold=0.031474969219916292 0.059828576326291877 11.182463170438753 0.074128404939364664 2.4710617335151235 1.2532664248499263 4.0890721601308355 0.042377198168335094 0.92151924042859201 0.037470329107242718 0.8488268681776806 7.6034668838599062 9.357065376352816 0.034729501264756157 0.041240211337703205 0.019661758497150749 3.3579873315672546 0.033609201399872009 0.041240211337703205 14.072754877035957 0.050839133810921304 0.021348772264613198 2.1522413210630043 3.6244738384272366 0.026988125908113041 1.5280812575029097 1.3042862644373117 3.3579873315672546 1.1748554363846051 0.015447756326071569 1.3487489537534187 4.0138712066165283 0.028859691911356383 2.6114097259525795 8.5094848133390091 18.637917963746045 0.017862230630558276 0.018936872196337221 3.5933029889137393 0.016311653606500113 0.013002723325021148 1.2211642790407671 1.4009205362165302 0.009097738595728792 0.024790776427633426 6.7094434829545948 0.023870859280236884 8.2393429290491778 0.025455407841983264 0.026283662715071151 0.029238147051047051 0.028401382865448549 9.1808389576229334 0.020206761525999432 0.023516520840429322 8.2393429290491778 0.022826397265842794 1.9041574513544208 0.018215558919441596 0.48755849794454736 0.022116651541057439 0.037470329107242718
decision_type=2 2 2 2 2 2 2 2 2 2 2 2 2 2 2 2 2 2 2 2 2 2 2 2 2 2 2 2 2 2 2 2 2 2 2 2 2 2 2 2 2 2 2 2 2 2 2 2 2 2 2 2 2 2 2 2 2 2 2 2 2 2
left_child=10 4 3 -3 5 8 7 16 -2 -7 29 13 -13 -8 61 34 -6 -14 19 -19 -20 26 24 27 28 -26 -17 32 -23 -1 -30 -25 33 -24 36 -36 41 -38 57 40 -37 43 -43 -12 45 56 47 -47 -46 -50 51 52 -51 -28 -32 -52 -33 -39 -31 -60 -61 -15
right_child=1 2 -4 -5 6 9 11 -9 -10 -11 15 12 17 14 -16 21 -18 18 20 -21 -22 22 23 31 25 -27 53 -29 30 58 54 44 -34 -35 35 39 37 38 -40 -41 -42 42 -44 -45 48 46 -48 -49 49 50 55 -53 -54 -55 -56 -57 -58 -59 59 60 -62 -63
leaf_value=-0.00042950341161851317 0.00016578665420669933 0.006918330863118171 0.00012052696181594262 0.0024174430849961937 0.00052876795509031844 0.0002655586325140162 -0.001017686736571098 0.005405407581757754 0.0040931915977437576 -0.0025563256592593259 -0.00047280141448771413 0.0029711061293208919 0.0024301084404446142 0.0016144552427743162 -0.0010023167841136456 0.0021389462319867949 0.0030220809134189038 0.0012904613390564918 0.0021408573168710892 -0.00085667742510850073 0.00016510942764580249 0.001229528818745166 0.0011287302901775282 -0.0011182966455817222 -0.00028247967391507699 -0.0032226843220870133 -0.00010937126450162067 0.002245814232180988 -0.001685435678809881 -0.0017268951942300977 0.0005107692636985091 -0.00015851616099672882 0.0016260403911292087 -0.00018151073177394113 0.00037829287281698163 -0.00011132259980182755 -0.00089511676274224344 -0.00023188984308105247 -0.00094329435268024862 0.00017019956771816526 -0.0022847061374760905 -0.00086329971563201295 -0.00020562428771741864 0.00020456859335891666 0.0013290260057692649 -0.0014605138694867492 -0.0019612103694817049 0.00019185226224665227 -0.00073283520715302719 0.0010820482317781582 -0.00093662877811584618 0.0026008461061460169 -0.00076015973659722435 0.00059944948696512843 -0.00071606775172627891 0.00036920861991379282 0.0010646783129175611 0.0010736092538091129 0.0005761805642396212 -0.00034372660185908897 -0.00229021693165123 0.0029810927427657273
leaf_weight=478 29 24 42 24 28 33 36 25 21 27 77 37 22 21 30 21 20 20 44 32 20 20 41 28 32 23 83 23 21 37 31 38 24 57 204 44 156 26 38 42 26 151 1532 264 26 25 24 77 31 33 30 23 38 151 39 29 29 29 24 32 32 23
leaf_count=478 29 24 42 24 28 33 36 25 21 27 77 37 22 21 30 21 20 20 44 32 20 20 41 28 32 23 83 23 21 37 31 38 24 57 204 44 156 26 38 42 26 151 1532 264 26 25 24 77 31 33 30 23 38 151 39 29 29 29 24 32 32 23
internal_value=-1.2026e-12 0.00137108 0.00254579 0.00466789 0.00114517 0.000277341 0.00141183 0.00288195 0.0018153 -0.00100429 -0.000182636 0.00103527 0.00148165 0.000325113 0.000978367 -0.00011863 0.00156765 0.0010823 0.000826685 -3.08548e-05 0.00152344 0.000133126 8.58424e-06 0.000195186 -0.0006389 -0.00151202 0.000495517 0.000873176 -0.000206274 -0.000563276 -0.000521835 -3.29085e-05 0.0006144 0.000366651 -0.000215578 6.33531e-05 -0.000254356 -0.000603927 -0.00011548 -0.000510287 -0.000918579 -0.000211351 -0.000264631 5.16141e-05 4.25031e-05 -0.000227758 -0.000546105 -0.000213139 0.000290885 0.000144192 0.00032189 0.000708947 9.60778e-05 0.00034803 -0.000172754 -0.000294776 0.000370926 0.000456464 -0.00107482 -0.000800657 -0.00131697 0.00232883
internal_weight=4747 558 90 48 468 110 358 73 50 60 4189 285 175 110 74 3586 48 138 116 52 64 997 742 576 166 55 255 145 111 603 91 431 122 98 2589 316 2273 249 93 112 70 2024 1683 341 403 193 126 102 210 184 153 94 71 234 70 59 67 55 125 88 64 44
internal_count=4747 558 90 48 468 110 358 73 50 60 4189 285 175 110 74 3586 48 138 116 52 64 997 742 576 166 55 255 145 111 603 91 431 122 98 2589 316 2273 249 93 112 70 2024 1683 341 403 193 126 102 210 184 153 94 71 234 70 59 67 55 125 88 64 44
is_linear=0
shrinkage=0.03


Tree=12
num_leaves=63
num_cat=0
split_feature=1 1 2 1 2 2 2 1 2 1 2 2 2 1 1 1 2 1 1 2 1 1 2 2 1 2 2 2 1 1 2 2 1 2 1 1 1 2 2 2 1 1 2 1 1 1 2 2 2 2 2 2 1 2 1 2 2 2 1 2 1 1
split_gain=1.24271 0.154807 0.484248 0.254143 0.113221 0.226673 0.207191 0.253113 0.196408 0.123625 0.106696 0.0944508 0.108822 0.100876 0.206934 0.0915024 0.0758231 0.0497049 0.0724588 0.0593195 0.0561134 0.0470423 0.0937237 0.0931239 0.0659399 0.141605 0.0646169 0.0538455 0.0433737 0.0454633 0.0628048 0.0368809 0.0322199 0.0300843 0.0648727 0.0545404 0.030859 0.0296387 0.0292763 0.0596836 0.035724 0.0370249 0.0460331 0.0325319 0.0807052 0.0315295 0.0293386 0.102148 0.0504163 0.0364956 0.0454309 0.0519836 0.028282 0.0384554 0.0620669 0.0538696 0.0344669 0.100485 0.0840433 0.0492082 0.0590578 0.0652076
threshold=0.031474969219916292 0.059828576326291877 11.182463170438753 0.074128404939364664 2.4710617335151235 1.2532664248499263 4.0890721601308355 0.042377198168335094 0.92151924042859201 0.037470329107242718 0.8488268681776806 7.6034668838599062 9.357065376352816 0.034729501264756157 0.041240211337703205 0.019661758497150749 3.3579873315672546 0.033609201399872009 0.041240211337703205 14.072754877035957 0.050839133810921304 0.021348772264613198 2.1522413210630043 3.6244738384272366 0.026527861115382228 1.5280812575029097 1.3042862644373117 3.3579873315672546 0.012324385419964584 0.010674206796146954 0.58978350197304141 4.0138712066165283 0.026988125908113041 0.48755849794454736 0.019545597257135623 0.022116651541057439 0.013938058016908221 0.67119903261789116 8.5094848133390091 18.637917963746045 0.017862230630558276 0.018936872196337221 3.5933029889137393 0.016311653606500113 0.013002723325021148 0.017065787159413034 5.0718690366245829 5.7014296119935297 2.4710617335151235 1.8427256226258499 1.2342114416187793 1.4009205362165302 0.024790776427633426 6.7094434829545948 0.023870859280236884 8.2393429290491778 11.746726282041402 15.151237803198841 0.027808636449044178 8.2393429290491778 0.028859691911356383 0.027314565558168424
decision_type=2 2 2 2 2 2 2 2 2 2 2 2 2 2 2 2 2 2 2 2 2 2 2 2 2 2 2 2 2 2 2 2 2 2 2 2 2 2 2 2 2 2 2 2 2 2 2 2 2 2 2 2 2 2 2 2 2 2 2 2 2 2
left_child=10 4 3 -3 5 8 7 16 -2 -7 28 13 -13 -8 -15 38 -6 -14 19 -19 -20 26 24 27 -23 -26 -17 32 29 -1 -31 -25 -24 34 -30 36 -35 -38 40 -40 45 -42 -43 44 -41 46 48 -48 49 50 -12 -52 53 -33 55 -55 59 -58 -59 60 61 -54
right_child=1 2 -4 -5 6 9 11 -9 -10 -11 15 12 17 14 -16 21 -18 18 20 -21 -22 22 23 31 25 -27 -28 -29 33 30 -32 52 -34 35 -36 -37 37 -39 39 43 41 42 -44 -45 -46 -47 47 -49 -50 -51 51 -53 56 54 -56 -57 57 58 -60 -61 -62 -63
leaf_value=-0.00049553328333593256 0.00016081304867462864 0.0067107808066066352 0.00011691121251455376 0.0023449197737500068 0.0005129049538767764 0.00025759189812974499 -0.00098715609080196978 0.0052432453550398349 0.0039703958767599292 -0.0024796359122006431 -4.4082783590835917e-06 0.0028819729800562597 0.002357205105151727 0.0022589689239182254 -0.00097224722988903509 0.0020747777740221605 0.0029314184985123571 0.0012517474251799285 0.0020766316291304645 -0.00083097706366970666 0.00016015616292133926 -0.00014611206794678069 0.00024910937097889405 -0.0010847477717990321 -0.00024475129679418523 -0.0031370801327750084 0.00033758924836757402 0.0021784398212785954 -0.0013838060471144588 0.0015000118021495066 -0.00054760645409779893 0.00035979846238511364 0.0012812253608220686 -0.001630180318146989 0.00092005212113938539 -0.0022215104126371444 9.7321045437925746e-05 -0.0010348705424210335 0.00036694409774046266 -0.00010798292192207141 -0.00086826327231112653 0.00044277029613625597 -0.00091499552375784042 0.00016509362596220202 -0.0022161649430815417 0.00023615972416711671 0.0012080380250911482 -0.00030204179133261577 -0.00050758445740977645 0.00011098834483901847 -0.00097413379912871076 -0.00026358434679566974 -4.3347462699536905e-05 -0.001416698438487947 -0.0019023741313139908 0.0001860966709103774 -0.0019992663604872568 -0.00078812092108736654 0.0018341427701737054 0.0014049524127040056 -0.0008834511835448211 0.0018294524065115385
leaf_weight=358 29 24 42 24 28 33 36 25 21 27 336 37 22 44 30 21 20 20 44 32 20 102 81 28 39 25 234 23 22 26 28 67 41 31 22 32 38 46 204 44 156 55 38 42 26 136 55 151 570 318 129 329 44 25 24 77 21 22 22 42 32 27
leaf_count=358 29 24 42 24 28 33 36 25 21 27 336 37 22 44 30 21 20 20 44 32 20 102 81 28 39 25 234 23 22 26 28 67 41 31 22 32 38 46 204 44 156 55 38 42 26 136 55 151 570 318 129 329 44 25 24 77 21 22 22 42 32 27
internal_value=7.97129e-13 0.00132995 0.00246941 0.00452785 0.00111082 0.00026902 0.00136947 0.00279549 0.00176084 -0.000974161 -0.000177157 0.00100421 0.0014372 0.00031536 0.000949016 -0.000115071 0.00152062 0.00104983 0.000801884 -2.99292e-05 0.00147773 0.000129132 8.32671e-06 0.00018933 -0.000619733 -0.00137457 0.000480652 0.000846981 -0.000546378 -0.00037314 0.000438284 -3.19213e-05 0.000595968 -0.000920065 -0.000231877 -0.00112605 -0.00082123 -0.000522689 -0.000209111 6.14525e-05 -0.000246726 -0.000585809 -0.000112016 -0.000494979 -0.000891022 -0.00020501 -0.00023679 0.000101135 -0.000278176 -0.000160584 -0.00026935 -0.000463717 4.1228e-05 -0.000220925 -0.000529722 -0.000206745 0.000282159 -0.000291879 0.000523011 0.000539486 0.000186578 0.000668844
internal_weight=4747 558 90 48 468 110 358 73 50 60 4189 285 175 110 74 3586 48 138 116 52 64 997 742 576 166 64 255 145 603 412 54 431 122 191 44 147 115 84 2589 316 2273 249 93 112 70 2024 1888 206 1682 1112 794 458 403 193 126 102 210 65 44 145 103 71
internal_count=4747 558 90 48 468 110 358 73 50 60 4189 285 175 110 74 3586 48 138 116 52 64 997 742 576 166 64 255 145 603 412 54 431 122 191 44 147 115 84 2589 316 2273 249 93 112 70 2024 1888 206 1682 1112 794 458 403 193 126 102 210 65 44 145 103 71
is_linear=0
shrinkage=0.03


Tree=13
num_leaves=63
num_cat=0
split_feature=1 2 2 2 2 1 1 2 2 1 2 1 2 2 2 1 2 2 2 2 1 2 2 1 2 2 2 1 2 2 1 2 1 2 2 1 1 2 1 1 1 2 2 2 2 2 2 1 2 1 2 1 1 1 1 2 1 1 1 2 2 1
split_gain=1.16926 0.149144 0.517019 0.140153 0.153689 0.125018 0.149545 0.115885 0.100514 0.140825 0.108806 0.122709 0.180043 0.117712 0.10039 0.0860946 0.06114 0.0542614 0.0483096 0.13672 0.0442621 0.0881846 0.0876203 0.0620428 0.133236 0.0607981 0.0506632 0.0421084 0.0386964 0.0347012 0.0306414 0.0427216 0.0281328 0.027546 0.0561563 0.0336127 0.0348367 0.0433126 0.0306093 0.0759356 0.0296661 0.0276047 0.096111 0.0474367 0.0343387 0.042746 0.0489114 0.0266105 0.0361827 0.0583987 0.0506859 0.0339282 0.0292265 0.0366622 0.111302 0.0602088 0.0261302 0.0257276 0.025134 0.0244266 0.0241218 0.0236813
threshold=0.031474969219916292 1.2211642790407671 0.92151924042859201 2.663976878793576 38.496878983203295 0.035825865413830572 0.033156202458552206 5.1348768466233397 12.470675144565138 0.047165850636685221 8.6738346782264468 0.065268837301905094 4.6701578500439185 3.7956409756976872 0.8488268681776806 0.019661758497150749 6.3534180456603826 9.7751701040462731 2.2646014732939244 1.9041574513544208 0.021348772264613198 2.1522413210630043 3.6244738384272366 0.026527861115382228 1.5280812575029097 1.3042862644373117 3.3579873315672546 0.015447756326071569 17.234086486572838 4.0138712066165283 0.028859691911356383 2.6114097259525795 0.020206761525999432 8.5094848133390091 18.637917963746045 0.017862230630558276 0.018936872196337221 3.5933029889137393 0.016311653606500113 0.013002723325021148 0.017065787159413034 5.0718690366245829 5.7014296119935297 2.4710617335151235 1.8427256226258499 1.2342114416187793 1.4009205362165302 0.024790776427633426 6.7094434829545948 0.023870859280236884 8.2393429290491778 0.025455407841983264 0.026283662715071151 0.029238147051047051 0.028401382865448549 9.1808389576229334 0.015639081012269684 0.022826397265842794 0.009097738595728792 1.9041574513544208 8.2393429290491778 0.018215558919441596
decision_type=2 2 2 2 2 2 2 2 2 2 2 2 2 2 2 2 2 2 2 2 2 2 2 2 2 2 2 2 2 2 2 2 2 2 2 2 2 2 2 2 2 2 2 2 2 2 2 2 2 2 2 2 2 2 2 2 2 2 2 2 2 2
left_child=14 2 -2 18 5 6 -5 -8 10 28 11 12 13 -7 27 33 -14 -12 19 -3 25 23 26 -22 -25 -17 30 -1 -10 -24 31 -23 -27 35 -35 40 -37 59 39 -36 41 43 -43 44 45 58 -47 48 57 50 -50 -49 -53 54 55 -54 -44 -31 -16 -38 -55 -29
right_child=1 3 -4 4 -6 8 7 -9 9 -11 17 -13 16 -15 15 20 -18 -19 -20 -21 21 22 29 24 -26 32 -28 61 -30 47 -32 -33 -34 34 38 36 37 -39 -40 -41 -42 42 56 -45 -46 46 -48 51 49 -51 -52 52 53 60 -56 -57 -58 -59 -60 -61 -62 -63
leaf_value=-0.00040178669268515799 0.00015598871424023447 -0.00061646192586301148 0.0061789920911921748 0.0019090557454286938 -0.00041547901905141768 0.0024632728247282404 -0.0019395049207378179 0.0007517437264323234 -0.0011412604193070106 0.0022446486847929473 0.004711622340604662 -0.00020505318756807933 0.00031876437392617976 0.0053337851408869026 -0.00046842513332649103 0.0020125344400626741 0.002104984827010947 0.0026151562007144091 -0.0010967327817343175 0.0024142184431132458 -0.00014172867522574962 0.0010813534659583394 -0.0010522053570353558 -0.00023740875642173565 -0.0030429676869884129 -0.00011621781319088067 0.0021130866831694929 -0.0016570325799418512 0.00070258195727365084 -0.00016455462116650061 0.0015388224246271418 -0.00018842766698645919 0.00057133831791903529 0.00035593576626792231 -0.00010474342556500976 -0.00084221537424197703 -0.00023821624998862924 -0.00088754563714916774 0.00016014079130919915 -0.0021496799912375324 0.00022907492878991486 0.0011717968950132754 -9.6476069874753637e-05 -0.00049235693096412242 0.00010765869701434947 -0.00094490979170713688 -0.00025567682163781376 0.0012881064156625563 -0.0013741975117474794 -0.0018453028603107667 0.00018051377512732302 -0.00070961957655174871 0.0010183799381113866 -0.00088202640856616197 0.0024821925109110611 -0.00073320695015258695 -0.0010855484730564057 0.0010219440169297238 0.00014077056777637154 0.0010281178321898113 0.00033134155093585865 -0.0007524741246015765
leaf_weight=478 29 37 23 49 40 36 24 36 21 41 20 22 35 20 80 21 34 25 25 21 102 41 28 39 25 83 23 37 20 38 24 57 151 204 44 156 26 38 42 26 136 55 121 570 318 129 329 26 25 24 77 31 33 30 23 38 30 29 256 29 29 88
leaf_count=478 29 37 23 49 40 36 24 36 21 41 20 22 35 20 80 21 34 25 25 21 102 41 28 39 25 83 23 37 20 38 24 57 151 204 44 156 26 38 42 26 136 55 121 570 318 129 329 26 25 24 77 31 33 30 23 38 30 29 256 29 29 88
internal_value=1.94932e-12 0.00129005 0.00282001 0.00113282 0.00135398 0.00153878 0.000679435 -0.000324756 0.00188064 0.00100141 0.00225615 0.00186101 0.00222464 0.00348846 -0.000171842 -0.000111619 0.00119893 0.00354692 5.67683e-06 0.000480853 0.000125258 8.07691e-06 0.00018365 -0.000601141 -0.00133333 0.000466232 0.000821571 -0.000529987 -0.000241825 -3.09636e-05 0.000578089 0.000342807 0.000327462 -0.000202838 5.96089e-05 -0.000239324 -0.000568235 -0.000108655 -0.000480129 -0.000864291 -0.00019886 -0.000229686 9.81008e-05 -0.000269831 -0.000155766 -0.000261269 -0.000449806 3.99911e-05 -0.000214297 -0.000513831 -0.000200543 0.000273694 0.000130353 0.000300544 0.000668459 8.09109e-05 -0.000292981 0.000349004 -4.27603e-06 0.000429487 -0.000285625 -0.00102022
internal_weight=4747 558 52 506 423 383 109 60 274 82 192 147 125 56 4189 3586 69 45 83 58 997 742 576 166 64 255 145 603 41 431 122 98 234 2589 316 2273 249 93 112 70 2024 1888 206 1682 1112 794 458 403 193 126 102 210 184 153 94 71 151 67 336 55 59 125
internal_count=4747 558 52 506 423 383 109 60 274 82 192 147 125 56 4189 3586 69 45 83 58 997 742 576 166 64 255 145 603 41 431 122 98 234 2589 316 2273 249 93 112 70 2024 1888 206 1682 1112 794 458 403 193 126 102 210 184 153 94 71 151 67 336 55 59 125
is_linear=0
shrinkage=0.03


Tree=14
num_leaves=63
num_cat=0
split_feature=1 1 1 2 2 2 1 2 2 2 2 2 1 2 2 1 2 1 2 1 1 1 1 1 2 2 1 2 2 2 1 2 1 1 2 2 1 2 2 2 1 1 2 2 2 1 1 2 1 1 1 2 2 2 2 2 2 1 1 1 1 1
split_gain=1.10016 0.15112 0.214205 0.155141 0.109117 0.210001 0.291703 0.158118 0.147957 0.108792 0.109698 0.0966396 0.11594 0.114147 0.0944572 0.0810064 0.0759995 0.0715005 0.068879 0.0673356 0.0479755 0.043702 0.0546116 0.0634227 0.0765804 0.125618 0.0596249 0.0538979 0.0452352 0.0407639 0.0396198 0.036102 0.0358453 0.0429626 0.0845986 0.065083 0.0716511 0.0507799 0.095486 0.033816 0.0333209 0.0376177 0.0261269 0.0259181 0.0528375 0.0316262 0.0327779 0.0407528 0.0288003 0.0714478 0.0279128 0.0259733 0.0904309 0.0446332 0.0323093 0.0402197 0.0462048 0.0245859 0.0236486 0.0235816 0.0389678 0.0299323
threshold=0.031474969219916292 0.065268837301905094 0.091666967952461431 42.465225945851486 2.4710617335151235 4.0890721601308355 0.042377198168335094 1.2532664248499263 0.92151924042859201 5.5206155910076147 6.6374750997419065 7.6034668838599062 0.050839133810921304 12.046332933752916 0.8488268681776806 0.019661758497150749 17.234086486572838 0.041240211337703205 3.3579873315672546 0.037470329107242718 0.036510692137591658 0.030278494916305587 0.028401382865448549 0.026730995083378329 11.746726282041402 2.1892651598293762 0.029238147051047051 1.1309945803991706 3.7063616179922456 5.2627245397460118 0.015447756326071569 4.421004297251506 0.026283662715071151 0.022336982856154122 21.431922573755415 2.3512812954665487 0.023672451972365286 5.9907168607269172 8.6738346782264468 4.0138712066165283 0.02339019120064079 0.022826397265842794 1.5508629435973582 8.5094848133390091 18.637917963746045 0.017862230630558276 0.018936872196337221 3.5933029889137393 0.016311653606500113 0.013002723325021148 0.017065787159413034 5.0718690366245829 5.7014296119935297 2.4710617335151235 1.8427256226258499 1.2342114416187793 1.3685336377684869 0.015639081012269684 0.009097738595728792 0.011827764601002976 0.014351533515760143 0.01618251750493924
decision_type=2 2 2 2 2 2 2 2 2 2 2 2 2 2 2 2 2 2 2 2 2 2 2 2 2 2 2 2 2 2 2 2 2 2 2 2 2 2 2 2 2 2 2 2 2 2 2 2 2 2 2 2 2 2 2 2 2 2 2 2 2 2
left_child=14 3 -3 4 7 6 18 8 -2 20 -11 -12 13 17 30 43 -15 -13 -6 -9 -7 22 23 27 25 -25 39 -17 -28 -27 -1 -23 33 42 35 -35 40 -38 -39 -24 41 -37 -29 45 -45 50 -47 -48 49 -46 51 53 -53 54 55 58 -57 -54 -16 -56 -61 -62
right_child=1 2 -4 -5 5 9 -8 19 -10 10 11 12 -14 16 15 21 -18 -19 -20 -21 -22 31 26 24 -26 29 28 32 -30 -31 -32 -33 -34 34 -36 36 37 38 -40 -41 -42 -43 -44 44 48 46 47 -49 -50 -51 -52 52 57 -55 59 56 -58 -59 -60 60 61 -63
leaf_value=-0.00038973308709588521 0.00015130896089148932 0.0041703487659106031 0.00089769773340473563 -0.0015259623108431696 0.00047718413540029093 -0.001102281593843005 0.0053354450418717329 0.00024298938329924235 0.0033733286064766021 0.0028523878613486886 -0.00061609467355689654 0.001862928688344432 -0.00036498425225727258 -0.00012748149809028422 -0.00045437236409998148 0.0014997324606196747 0.0018495228449132159 0.0039527544622188025 0.0027822922216728329 -0.0017572072188236883 0.00073831780739128593 -0.0016523295537229966 0.00084233963241179773 -0.0017952719250563954 -0.0022783144719433035 -9.6212730036470396e-05 0.0011585850607265125 0.0010820385324768723 -0.00062012631190760481 0.0015752326619985978 -0.0009896166947158053 -2.8346030968740314e-05 0.0011156288097845389 -0.00078740197534084701 -0.0019147684804730765 -0.0009022171410822099 0.001199669986141986 -0.0011167565538198687 0.0012008041694087977 0.002407726752774223 -0.0015106415523332543 0.00049786499410402034 0.00022973215690526728 0.00034525768160272166 -0.00010160114594989202 -0.00081694892953517123 0.00041660258566050536 -0.00086091932583306184 0.00015533655333066623 -0.0020851896051317454 0.0002222026914360493 0.0011366429814687845 -9.3581820818911156e-05 -0.00047758622355784032 -0.00019442612381039104 -0.0010064411647617815 -0.00027705751482544301 -0.0010529820090159775 0.00013654745639428255 0.0007864615719380049 -0.00043658229861227762 0.00073140056155222865
leaf_weight=478 29 36 36 20 28 26 27 33 23 36 27 41 30 35 80 27 35 23 20 28 25 22 27 29 20 29 22 36 31 24 125 28 32 76 23 31 73 32 32 23 20 39 321 204 44 156 55 38 42 26 136 55 121 570 136 100 358 30 256 87 67 28
leaf_count=478 29 36 36 20 28 26 27 33 23 36 27 41 30 35 80 27 35 23 20 28 25 22 27 29 20 29 22 36 31 24 125 28 32 76 23 31 73 32 32 23 20 39 321 204 44 156 55 38 42 26 136 55 121 570 136 100 358 30 256 87 67 28
internal_value=-1.54011e-12 0.00125135 0.00253402 0.00106132 0.00117236 0.00143209 0.00284085 0.000360986 0.00157643 0.00105203 0.00133333 0.00104702 0.00132083 0.00169825 -0.000166687 -0.00010827 0.000861021 0.00261396 0.00143765 -0.000675134 -0.000200027 0.0001215 0.000167139 8.75532e-05 -0.00061386 -0.000207896 0.00081928 0.000183974 0.000118207 0.000660668 -0.000514087 -0.000742899 0.000134288 8.83101e-05 -0.00016068 -2.75312e-05 0.000226875 0.000658872 4.20238e-05 0.00156242 -0.00043072 -0.000122171 0.000315679 -0.000196753 5.78206e-05 -0.000232144 -0.000551188 -0.000105396 -0.000465725 -0.000838363 -0.000192894 -0.000222795 9.51578e-05 -0.000261736 -0.000151093 -0.000253431 -0.000436312 -0.000284191 -4.14774e-06 0.000104429 0.000327749 -9.23347e-05
internal_weight=4747 558 72 486 466 353 75 113 52 278 227 191 164 134 4189 3586 70 64 48 61 51 997 947 844 102 82 103 742 53 53 603 50 715 683 326 303 227 137 64 50 90 70 357 2589 316 2273 249 93 112 70 2024 1888 206 1682 1112 794 458 151 336 318 182 95
internal_count=4747 558 72 486 466 353 75 113 52 278 227 191 164 134 4189 3586 70 64 48 61 51 997 947 844 102 82 103 742 53 53 603 50 715 683 326 303 227 137 64 50 90 70 357 2589 316 2273 249 93 112 70 2024 1888 206 1682 1112 794 458 151 336 318 182 95
is_linear=0
shrinkage=0.03


Tree=15
num_leaves=63
num_cat=0
split_feature=1 1 1 2 2 2 1 2 2 2 2 2 1 2 2 1 2 1 2 1 1 1 1 2 1 2 2 1 2 1 2 1 1 2 2 1 2 2 2 2 1 1 2 2 2 1 1 2 1 1 1 2 2 2 2 2 2 1 2 1 1 1
split_gain=1.03514 0.142189 0.201545 0.145972 0.102668 0.19759 0.274463 0.148773 0.139213 0.102362 0.103215 0.0909282 0.109088 0.107401 0.0888748 0.0762189 0.0715079 0.0672749 0.0648083 0.0633561 0.0451401 0.0411192 0.0513841 0.060033 0.0639572 0.109074 0.141681 0.056101 0.0425618 0.0382896 0.0339684 0.0337269 0.0404236 0.0795989 0.0612366 0.0674165 0.0477788 0.0898428 0.0323612 0.0318175 0.0313516 0.0353945 0.0245828 0.0243863 0.0497148 0.0297571 0.0308407 0.0383443 0.0271438 0.0703166 0.0262632 0.0244383 0.0850864 0.0419954 0.0303998 0.0378427 0.0437151 0.0231329 0.022983 0.0224488 0.0425509 0.022251
threshold=0.031474969219916292 0.065268837301905094 0.091666967952461431 42.465225945851486 2.4710617335151235 4.0890721601308355 0.042377198168335094 1.2532664248499263 0.92151924042859201 5.5206155910076147 6.6374750997419065 7.6034668838599062 0.050839133810921304 12.046332933752916 0.8488268681776806 0.019661758497150749 17.234086486572838 0.041240211337703205 3.3579873315672546 0.037470329107242718 0.036510692137591658 0.030278494916305587 0.028401382865448549 1.1309945803991706 0.026730995083378329 2.1892651598293762 9.1808389576229334 0.029238147051047051 3.7063616179922456 0.022336982856154122 4.421004297251506 0.026283662715071151 0.022336982856154122 21.431922573755415 2.3512812954665487 0.023672451972365286 5.9907168607269172 8.6738346782264468 4.6129844789279266 4.0138712066165283 0.02339019120064079 0.022826397265842794 1.5508629435973582 8.5094848133390091 18.637917963746045 0.017862230630558276 0.018936872196337221 3.5933029889137393 0.016233401530161628 0.013002723325021148 0.017065787159413034 5.0718690366245829 5.7014296119935297 2.4710617335151235 1.8427256226258499 1.2342114416187793 1.4009205362165302 0.015639081012269684 1.9041574513544208 0.020623181297847414 0.015447756326071569 0.009097738595728792
decision_type=2 2 2 2 2 2 2 2 2 2 2 2 2 2 2 2 2 2 2 2 2 2 2 2 2 2 2 2 2 2 2 2 2 2 2 2 2 2 2 2 2 2 2 2 2 2 2 2 2 2 2 2 2 2 2 2 2 2 2 2 2 2
left_child=14 3 -3 4 7 6 18 8 -2 20 -11 -12 13 17 29 43 -15 -13 -6 -9 -7 22 23 -17 31 -26 38 39 -29 59 -23 32 42 34 -34 40 -37 -38 -27 -24 41 -36 -25 45 -45 50 -47 58 49 -46 51 53 -53 54 55 61 -57 -54 -48 60 -1 -16
right_child=1 2 -4 -5 5 9 -8 19 -10 10 11 12 -14 16 15 21 -18 -19 -20 -21 -22 30 27 24 25 26 -28 28 -30 -31 -32 -33 33 -35 35 36 37 -39 -40 -41 -42 -43 -44 44 48 46 47 -49 -50 -51 -52 52 57 -55 -56 56 -58 -59 -60 -61 -62 -63
leaf_value=-0.00037804109994737917 0.00014676973448488219 0.0040452383030302975 0.00087076686788350348 -0.0014801835394464434 0.00046286864106410313 -0.0010692131657225009 0.0051753817001978552 0.00023569973608986898 0.0032721287482823042 0.0027668162303355831 -0.0005976118397019389 0.0018070409028995327 -0.00035403470584424208 -0.00012365707016683052 -0.00044074122034362516 0.0013198732576497336 0.0017940371946647896 0.0038341718685367832 0.0026988234648015349 -0.0017044910261548856 0.0007161682851612568 -0.0016027597225779157 0.00081706946870932972 0.00104957737106209 -0.0025499407270796258 0.00013533454065999161 -0.0019171596157292908 0.0011238275040787728 -0.00060152251378542952 -0.0013837375684368719 -2.7495658391022257e-05 0.0010821599175687879 -0.00076377992101601868 -0.0018573254638138915 -0.00087515059948688548 0.001163679853190145 -0.0010832538695467518 0.0011647799924685387 0.0017187192785370696 0.0023354949235268262 -0.0014653222991764779 0.00048292905958638021 0.00022284020247072782 0.000334899955906782 -9.8553071941503065e-05 -0.00079244044425789831 -0.00024356785445259164 -0.00083509171669567486 0.0001398594071005666 -0.0020909609109163283 0.0002155366131410119 0.0011025437184064436 -9.0774337766876773e-05 -0.00046325864204060821 0.00010129608612019954 -0.00089128836110196361 -0.00023969478725358747 -0.0010213925605639816 0.00098477622454961884 0.00048377234030656677 -0.0012194188199371964 0.00013245100834865297
leaf_weight=478 29 36 36 20 28 26 27 33 23 36 27 41 30 35 80 34 35 23 20 28 25 22 27 36 22 26 26 22 31 41 28 32 76 23 31 73 32 32 21 23 20 39 321 204 44 156 26 38 43 25 136 55 121 570 318 129 329 30 29 23 61 256
leaf_count=478 29 36 36 20 28 26 27 33 23 36 27 41 30 35 80 34 35 23 20 28 25 22 27 36 22 26 26 22 31 41 28 32 76 23 31 73 32 32 21 23 20 39 321 204 44 156 26 38 43 25 136 55 121 570 318 129 329 30 29 23 61 256
internal_value=4.69504e-13 0.00121381 0.002458 0.00102948 0.00113719 0.00138913 0.00275563 0.000350156 0.00152914 0.00102047 0.00129333 0.00101561 0.0012812 0.0016473 -0.000161686 -0.000105022 0.00083519 0.00253554 0.00139452 -0.00065488 -0.000194026 0.000117855 0.000162125 8.49266e-05 3.30894e-05 -0.000698243 -0.000140197 0.000794702 0.000114661 -0.000498664 -0.000720612 0.000130259 8.56608e-05 -0.000155859 -2.67052e-05 0.000220069 0.000639106 4.07631e-05 0.000842804 0.00151555 -0.000417799 -0.000118506 0.000306209 -0.00019085 5.6086e-05 -0.00022518 -0.000534652 -0.000102234 -0.000451754 -0.00082044 -0.000187107 -0.000216111 9.23031e-05 -0.000253884 -0.000146561 -0.000245828 -0.000423222 -0.000275665 0.000404104 -0.000434095 -0.000473262 -4.02333e-06
internal_weight=4747 558 72 486 466 353 75 113 52 278 227 191 164 134 4189 3586 70 64 48 61 51 997 947 844 810 95 73 103 53 603 50 715 683 326 303 227 137 64 47 50 90 70 357 2589 316 2273 249 93 112 69 2024 1888 206 1682 1112 794 458 151 55 562 539 336
internal_count=4747 558 72 486 466 353 75 113 52 278 227 191 164 134 4189 3586 70 64 48 61 51 997 947 844 810 95 73 103 53 603 50 715 683 326 303 227 137 64 47 50 90 70 357 2589 316 2273 249 93 112 69 2024 1888 206 1682 1112 794 458 151 55 562 539 336
is_linear=0
shrinkage=0.03


Tree=16
num_leaves=63
num_cat=0
split_feature=1 2 2 2 2 1 1 2 2 2 1 2 2 2 2 1 2 2 1 1 2 1 2 2 1 2 1 1 2 2 1 1 2 2 1 2 2 2 2 1 1 2 2 2 1 1 2 2 1 2 2 2 2 2 2 1 1 1 2 2 2 1
split_gain=0.973963 0.136213 0.454279 0.118682 0.130797 0.0851166 0.16012 0.104443 0.0836223 0.0782256 0.131259 0.111145 0.186022 0.110064 0.077859 0.0717144 0.0422497 0.101035 0.0386891 0.0483473 0.0564851 0.0601773 0.102628 0.133308 0.0527855 0.0400464 0.0369056 0.0360267 0.0319609 0.0318077 0.0317336 0.0380345 0.0748946 0.0576175 0.0634322 0.044955 0.0845331 0.0304487 0.0299371 0.0294987 0.0333027 0.02313 0.0229451 0.0467766 0.0279984 0.029018 0.0360782 0.0265536 0.0247688 0.0245552 0.069933 0.0429263 0.0314161 0.0392573 0.0372506 0.0233763 0.0234274 0.0230148 0.0363879 0.0703687 0.0304164 0.0414281
threshold=0.031474969219916292 1.2211642790407671 0.92151924042859201 2.7598073360949491 38.496878983203295 0.035825865413830572 0.033156202458552206 5.1348768466233397 0.8488268681776806 12.470675144565138 0.047165850636685221 7.8940839215657288 9.357065376352816 5.9114308429701046 3.4234262599028988 0.019661758497150749 2.1995555161521696 1.8075442606687926 0.030278494916305587 0.028401382865448549 1.1309945803991706 0.026730995083378329 2.1892651598293762 9.1808389576229334 0.029238147051047051 3.7063616179922456 0.041240211337703205 0.022336982856154122 4.421004297251506 17.234086486572838 0.026283662715071151 0.022336982856154122 21.431922573755415 2.3512812954665487 0.023672451972365286 5.9907168607269172 8.6738346782264468 4.6129844789279266 4.0138712066165283 0.02339019120064079 0.022826397265842794 1.5508629435973582 8.5094848133390091 18.637917963746045 0.017862230630558276 0.018936872196337221 3.5933029889137393 24.271358357290616 0.016812699922494654 5.0718690366245829 5.7014296119935297 2.4710617335151235 1.7907625278402668 1.2342114416187793 1.3337037490543395 0.011764478338091225 0.0086476289708417083 0.014351533515760143 1.9893238302158025 2.1995555161521696 2.0133222080085083 0.01611723243202396
decision_type=2 2 2 2 2 2 2 2 2 2 2 2 2 2 2 2 2 2 2 2 2 2 2 2 2 2 2 2 2 2 2 2 2 2 2 2 2 2 2 2 2 2 2 2 2 2 2 2 2 2 2 2 2 2 2 2 2 2 2 2 2 2
left_child=8 2 -2 16 5 6 -5 -8 27 11 29 13 -13 14 -7 42 17 -3 19 20 -17 30 -23 37 38 -26 -16 -1 -20 -11 31 41 33 -33 39 -36 -37 -24 -21 40 -35 -22 44 -44 48 -46 -47 -45 49 51 -51 52 53 -10 -55 56 -54 58 -57 -60 -59 -62
right_child=1 3 -4 4 -6 9 7 -9 15 10 -12 12 -14 -15 26 18 -18 -19 28 24 21 22 23 -25 25 -27 -28 -29 -30 -31 -32 32 -34 34 35 36 -38 -39 -40 -41 -42 -43 43 47 45 46 -48 -49 -50 50 -52 -53 55 54 -56 57 -58 60 59 -61 61 -63
leaf_value=-0.00042107221474334532 0.0001423666812479496 -0.00073700768045253224 0.0057881145651512986 0.0020031114670626344 -0.00039506711726426143 0.00071363198642547315 -0.0018682088772766291 0.00068672828434500842 -9.0874261052415871e-06 -0.0010994884185492992 0.0021165088228398661 0.0050038612039329912 0.0016108496681871739 0.00020236997435299251 0.003531798367890028 0.0012802770357195506 -0.00080657368388903491 0.0018831475270249377 -0.0015546768863383806 0.00079255733535521554 0.0010180900633955995 -0.0024734424727714875 0.00013127451493906287 -0.0018596448374983783 0.0010901126815852792 -0.00058347687110184656 0.00207994493865408 -0.0013422254863743124 -2.6670803781598805e-05 0.00057219772314419967 0.0010496951341337989 -0.0007408664908450048 -0.0018016057183115703 -0.00084889609216442033 0.0011287694852097495 -0.0010507562400880487 0.0011298366222035837 0.0016671576291056615 0.0022654301302669488 -0.001421362637076527 0.00046844116819556798 0.00021615499730121831 0.00032485295472296826 -0.0011378530760788742 -0.00076866726710599878 0.00039198136429133062 -0.00081003895973002431 -0.00013322444865480066 0.0001503762414564414 0.0010334778536343946 -0.0002399462882413304 -0.00046828400655573677 0.00042138727805909833 -0.0010438732929526247 -0.00031231700769434868 -0.00013013627471377117 -0.00040843607892078324 0.00079120170721060795 0.002183085151149758 0.00018971502623596302 -0.0009276964639984937 0.00069790769701025311
leaf_weight=562 29 27 23 47 40 26 24 36 328 21 41 26 33 39 26 34 34 26 22 27 36 22 26 26 22 31 40 41 28 20 32 76 23 31 73 32 32 21 23 20 39 321 204 34 156 55 38 78 184 53 145 552 42 77 336 37 113 28 28 37 43 21
leaf_count=562 29 27 23 47 40 26 24 36 328 21 41 26 33 39 26 34 34 26 22 27 36 22 26 26 22 31 40 41 28 20 32 76 23 31 73 32 32 21 23 20 39 321 204 34 156 55 38 78 184 53 145 552 42 77 336 37 113 28 28 37 43 21
